{"log_std": [15.174918174743652, 15.115999221801758], "mlp_extractor.policy_net.0.weight": [[-0.09130629152059555, 0.022650454193353653, 0.021844880655407906, -0.352263480424881, 0.30518513917922974, 0.12493880838155746, 0.27960890531539917, 0.007647226098924875], [-0.29378819465637207, -0.08092561364173889, -0.10730339586734772, -0.12707918882369995, 0.05985911190509796, 0.071997731924057, -0.09795462340116501, 0.019174309447407722], [0.10506387054920197, -0.4325648844242096, -0.12439052015542984, -0.14986427128314972, 0.07058480381965637, 0.3343327045440674, -0.1363985538482666, 0.40060684084892273], [-0.03420981019735336, 0.31781357526779175, 0.1060098335146904, 0.6103084683418274, 0.22946177423000336, -0.15863722562789917, -0.15087051689624786, 0.030266154557466507], [0.06055530533194542, 0.3263494074344635, -0.0183471217751503, 0.30377280712127686, -0.14073050022125244, -0.18602019548416138, 0.008498468436300755, -0.1275620311498642], [-0.12429920583963394, 0.3457449674606323, 0.13985534012317657, 0.15902534127235413, -0.07365226745605469, -0.3303717374801636, 0.20665186643600464, -0.20781047642230988], [0.1186029389500618, -0.2426684945821762, -0.13395249843597412, -0.05873881280422211, 0.37184271216392517, 0.05604405701160431, -0.10914440453052521, -0.26634523272514343], [0.09506639093160629, -0.21996113657951355, 0.040831491351127625, -0.20099307596683502, -0.21605637669563293, 0.006643508095294237, -0.03745295852422714, 0.40551653504371643], [-0.06047607958316803, -0.02179505117237568, 0.1528102159500122, 0.29088857769966125, -0.14023728668689728, 0.09822749346494675, -0.11246529966592789, -0.16013982892036438], [0.0037440129090100527, -0.32114094495773315, -0.1655954271554947, -0.4060150682926178, 0.1851550042629242, 0.09224580973386765, -0.04289555549621582, 0.3173793852329254], [-0.24098993837833405, 0.17618083953857422, 0.05126776546239853, 0.5192987322807312, -0.03127589449286461, -0.002381066558882594, 0.23831304907798767, -0.04695453867316246], [0.048906467854976654, -0.23875555396080017, -0.03607112541794777, -0.39962655305862427, 0.27656975388526917, 0.27005520462989807, 0.2228258103132248, 0.11587050557136536], [-0.335854172706604, 0.26526331901550293, -0.19020415842533112, -0.07216602563858032, -0.17889870703220367, -0.16401037573814392, 0.27535557746887207, -0.06674086302518845], [-0.04956349357962608, 0.1760425865650177, 0.06069572642445564, 0.4407077729701996, 0.1870490312576294, -0.09995298832654953, 0.08400970697402954, 0.22801296412944794], [-0.07194221019744873, -0.40799328684806824, 0.24883367121219635, -0.4128895401954651, -0.19186079502105713, 0.16626428067684174, -0.0613752044737339, 0.01257676538079977], [0.010475726798176765, -0.4840523302555084, -0.0545426681637764, -0.5556394457817078, 0.018509063869714737, 0.23534399271011353, -0.0692058801651001, -0.016645612195134163], [-0.07692965865135193, 0.3684884011745453, -0.08049791306257248, 0.1850866824388504, 0.1122792586684227, -0.6043211221694946, 0.09854348003864288, 0.14901737868785858], [0.10445557534694672, -0.2442418485879898, -0.02899262122809887, -0.2672569453716278, 0.26479944586753845, 0.14865869283676147, -0.3253847360610962, 0.0027992427349090576], [-0.13856114447116852, 0.04122859239578247, 0.15233568847179413, 0.10662891715765, -0.37757301330566406, -0.00859997607767582, 0.14472822844982147, -0.02307809703052044], [-0.25772351026535034, 0.329211950302124, 0.15182948112487793, -0.23373273015022278, 0.18971891701221466, 0.017589017748832703, -0.2839544117450714, -0.19850413501262665], [0.3771492838859558, -0.022759130224585533, 0.0005538914701901376, -0.3901537358760834, 0.13183990120887756, 0.2005597949028015, -0.005032613407820463, -0.359062135219574], [-0.21590684354305267, 0.20659124851226807, 0.1823618859052658, 0.31608185172080994, 0.007544736377894878, -0.23397976160049438, -0.24172520637512207, -0.23324242234230042], [-0.08448612689971924, -0.35969385504722595, 0.005416167434304953, -0.4734463393688202, -0.12417291849851608, 0.1478012502193451, 0.11214148998260498, 0.15078702569007874], [-0.1388908475637436, 0.2035537213087082, 0.007464358117431402, 0.04744885489344597, 0.2186751514673233, -0.1893087476491928, 0.08300703018903732, -0.031012840569019318], [-0.019214441999793053, 0.40111207962036133, 0.023627495393157005, -0.21722418069839478, -0.05098595842719078, -0.09428448975086212, -0.07798267900943756, 0.001964268274605274], [-0.12137699872255325, -0.020391443744301796, 0.12156502902507782, -0.17068876326084137, 0.08808740228414536, 0.16645672917366028, -0.17701677978038788, 0.08917029947042465], [0.06501951068639755, -0.42143118381500244, 0.15832632780075073, -0.1065581813454628, 0.04330770671367645, 0.4447912573814392, -0.39937296509742737, 0.1422489881515503], [-0.055489540100097656, -0.34049999713897705, 0.2647964358329773, -0.4835090637207031, 0.09042029082775116, 0.24790777266025543, 0.04100021347403526, -0.04206209257245064], [0.1279693990945816, 0.05710431933403015, 0.3010755777359009, -0.28776705265045166, -0.007218963000923395, 0.21767038106918335, 0.18364189565181732, 0.013347776606678963], [-0.012987547554075718, -0.23227737843990326, 0.22090260684490204, 0.08815382421016693, 0.14944855868816376, 0.4001351594924927, -0.20724479854106903, -0.16143620014190674], [-0.05846156179904938, -0.30086374282836914, 0.12041310966014862, -0.4419091045856476, 0.15383891761302948, -0.11508189886808395, -0.1491818130016327, 0.14932259917259216], [-0.13015258312225342, -0.4304603338241577, -0.025301650166511536, -0.34305134415626526, -0.05900292098522186, 0.047646697610616684, 0.10109400749206543, -0.15457811951637268], [0.25866463780403137, -0.039830319583415985, 0.22394417226314545, 0.08402010798454285, 0.22211796045303345, -0.14329296350479126, -0.25859522819519043, -0.19697512686252594], [-0.05490662530064583, -0.3889803886413574, -0.2055349200963974, -0.474422812461853, 0.18728990852832794, 0.2349829375743866, 0.12593598663806915, -0.20915581285953522], [0.07246290147304535, -0.1469506323337555, 0.10943792015314102, 0.07684188336133957, 0.29411283135414124, -0.3950953483581543, -0.0941617414355278, 0.07371257245540619], [0.17940030992031097, 0.33333447575569153, -0.177105113863945, 0.12422748655080795, -0.029238669201731682, -0.22743822634220123, 0.00924736075103283, 0.2102232128381729], [0.16988149285316467, -0.050015032291412354, -0.08609750866889954, -0.3365270793437958, -0.19547349214553833, 0.13092470169067383, 0.05120998993515968, 0.07039755582809448], [0.05578060820698738, 0.3844469487667084, 0.017621472477912903, 0.19520792365074158, -0.19625020027160645, -0.16014978289604187, -0.3401655852794647, 0.3259653151035309], [-0.0985550507903099, 0.24843785166740417, 0.43328678607940674, 0.2096753865480423, 0.21636195480823517, -0.13332471251487732, -0.04089859500527382, 0.14064641296863556], [0.09531155973672867, 0.40024250745773315, -0.11330700665712357, -0.08181873708963394, -0.011387009173631668, -0.13911525905132294, -0.09440990537405014, 0.07255588471889496], [-0.09868514537811279, 0.5552446842193604, 0.24508680403232574, 0.32072025537490845, 0.22405105829238892, -0.2124936431646347, 0.050860751420259476, 0.2401273399591446], [0.03171488270163536, 0.444733589887619, 0.1505209058523178, 0.3305216431617737, -0.044059060513973236, -0.2231975793838501, -0.3020782172679901, 0.11044353991746902], [0.1562879979610443, -0.585634708404541, -0.32255926728248596, -0.08721762895584106, 0.017613032832741737, 0.3444213569164276, -0.024098651483654976, 0.07974660396575928], [0.19055666029453278, 0.5927638411521912, -0.12631452083587646, 0.3523883521556854, 0.12241335213184357, -0.3429498076438904, -0.05529633164405823, -0.13656140863895416], [-0.19576533138751984, -0.2854923605918884, 0.0408601388335228, -0.15571053326129913, -0.11289184540510178, 0.6086116433143616, 0.28328174352645874, 0.18384766578674316], [-0.19042238593101501, -0.0659954845905304, 0.17102296650409698, -0.28102678060531616, 0.18867461383342743, 0.1770983785390854, -0.17990347743034363, 0.24025288224220276], [0.28132081031799316, -0.3112710118293762, 0.11549387872219086, -0.3394928574562073, -0.16818393766880035, 0.3015725910663605, -0.1433209627866745, 0.0374131016433239], [0.24056020379066467, -0.16328977048397064, 0.13024985790252686, 0.10526780784130096, -0.12549464404582977, 0.11053621768951416, -0.17917023599147797, -0.16638675332069397], [-0.07383377850055695, -0.28968650102615356, 0.5714918375015259, 0.020834578201174736, 0.07833211869001389, 0.11079428344964981, 0.10569851845502853, 0.36734241247177124], [-0.09746789187192917, -0.2182801365852356, 0.19649338722229004, -0.14242270588874817, 0.10388443619012833, 0.1944972723722458, -0.01007674727588892, -0.350786030292511], [0.03214656934142113, 0.32306012511253357, -0.20815284550189972, 0.24342010915279388, 0.4031279385089874, -0.004063720814883709, 0.2251943200826645, 0.1802901327610016], [-0.16061806678771973, 0.2680141031742096, 0.0007908409461379051, 0.07537925988435745, -0.23003895580768585, -0.07264728099107742, -0.1321384757757187, -0.0864727646112442], [-0.12318147718906403, 0.24661949276924133, 0.36824172735214233, 0.07361166924238205, -0.17028625309467316, 0.06499090790748596, 0.0777885690331459, -0.03781803324818611], [0.12949080765247345, -0.089065782725811, 0.09993166476488113, -0.19725249707698822, 0.1395687758922577, 0.11788676679134369, 0.022456234320998192, 0.036956947296857834], [0.4172433614730835, -0.23653624951839447, 0.0064108408987522125, -0.13705934584140778, 0.0036840203683823347, 0.17825999855995178, -0.14351464807987213, -0.03000485524535179], [0.06250079721212387, 0.431668221950531, -0.06906849145889282, 0.33728137612342834, -0.23277366161346436, -0.27961963415145874, -0.2629246413707733, 0.123211570084095], [-0.022876810282468796, -0.5267837047576904, 0.19724082946777344, -0.026880497112870216, 0.16366732120513916, -0.09032256156206131, 0.35061782598495483, -0.15206462144851685], [0.16866850852966309, 0.21161335706710815, -0.1133928969502449, 0.3878665864467621, 0.14656205475330353, -0.002284563845023513, 0.12143148481845856, 0.21645846962928772], [-0.15127825736999512, 0.16139023005962372, 0.1281081736087799, -0.10459903627634048, 0.23972733318805695, -0.09921735525131226, -0.32850173115730286, 0.07867699861526489], [0.1874905526638031, -0.11258458346128464, 0.0513014942407608, -0.15391488373279572, 0.046857137233018875, 0.09304533153772354, -0.18541985750198364, -0.17562876641750336], [-0.07696355879306793, -0.45168232917785645, 0.12893496453762054, -0.5962684750556946, -0.26773881912231445, 0.03794342279434204, -0.21605341136455536, 0.13690561056137085], [0.13075138628482819, 0.32261040806770325, -0.04892512783408165, 0.011139868758618832, -0.12853378057479858, -0.1451808363199234, -0.18298356235027313, -0.01662348210811615], [0.2689115107059479, -0.43852826952934265, -0.002057237783446908, -0.2881459891796112, -0.029755258932709694, 0.1561950445175171, 0.001911396742798388, -0.1184120923280716], [0.24095287919044495, 0.3063507676124573, -0.08411343395709991, -0.07770676910877228, 0.026413418352603912, -0.046664509922266006, 0.16612230241298676, 0.17909032106399536]], "mlp_extractor.policy_net.0.bias": [0.014992516487836838, 0.2386111617088318, 0.006583206355571747, -0.05876268818974495, 0.06978503614664078, 0.043357860296964645, -0.13821224868297577, -0.007224862463772297, 0.08919083327054977, -0.11776898801326752, -0.007185555528849363, 0.0689406767487526, -0.06261029094457626, 0.03118833154439926, 0.04289704188704491, -0.06501559913158417, -0.22260905802249908, -0.06276798248291016, 0.009659823030233383, -0.0922299474477768, 0.22466705739498138, -0.17779694497585297, -0.03698611259460449, -0.1658407598733902, -0.00403545843437314, -0.06404779851436615, 0.13996508717536926, 0.09279204905033112, 0.19513866305351257, 0.13313427567481995, 0.05119924619793892, -0.12860660254955292, -0.018752768635749817, -0.11130709946155548, -0.07354995608329773, 0.060485780239105225, 0.12022749334573746, -0.007213846314698458, 0.0970849022269249, 0.029461899772286415, 0.1480676382780075, 0.020369788631796837, -0.02452671341598034, 0.12368687987327576, 0.17858822643756866, -0.0722106546163559, 0.3103867769241333, 0.11226776987314224, 0.1328321248292923, -0.001417477848008275, 0.04944349080324173, -0.032446980476379395, 0.12606507539749146, -0.010951713658869267, 0.22712869942188263, -0.07654792815446854, -0.010524922981858253, 0.05416831374168396, -0.09695576131343842, 0.12892790138721466, -0.021993545815348625, -0.03495381772518158, 0.18310202658176422, 0.06014709174633026], "mlp_extractor.policy_net.2.weight": [[0.17993701994419098, -0.14371506869792938, 0.37133991718292236, 0.1463901698589325, -0.5764548778533936, -0.641119658946991, 0.0493880957365036, 0.073431596159935, 0.07656676322221756, 0.5701316595077515, -0.10644304752349854, 0.1362401396036148, 0.014325124211609364, -0.036663636565208435, 0.23067805171012878, 0.21350537240505219, -0.05025048926472664, 0.14265161752700806, 0.29910215735435486, 0.009506043046712875, 0.01719188503921032, 0.030863184481859207, 0.3279810845851898, -0.2701835036277771, 0.05169440060853958, 0.2938263714313507, 0.41005945205688477, 0.22497402131557465, -0.04302592948079109, -0.062240298837423325, -0.2155432552099228, 0.20231688022613525, 0.04751982167363167, 0.24389886856079102, -0.005473349709063768, 0.1546865552663803, 0.15342770516872406, -0.1858285814523697, -0.2795635163784027, -0.10487833619117737, -0.12253739684820175, -0.07017512619495392, -0.1549392193555832, -0.22679193317890167, 0.03613688796758652, 0.2713542580604553, 0.19375990331172943, 0.27453675866127014, 0.05375899747014046, 0.24548377096652985, 0.0352821871638298, 0.16482841968536377, -0.14498411118984222, 0.1505654901266098, 0.28848299384117126, -0.4173910915851593, 0.3859456181526184, -0.3224326968193054, -0.08129266649484634, 0.2137964814901352, 0.12156961113214493, -0.1732466071844101, 0.018088089302182198, 0.00730254128575325], [-0.03144410252571106, -0.14697575569152832, 0.3981337249279022, -0.3925209939479828, 0.06867899745702744, 0.056568875908851624, 0.09800118952989578, 0.048894498497247696, -0.09925100952386856, 0.2477167695760727, -0.3425077199935913, 0.4341840147972107, -0.17760829627513885, -0.09469854831695557, 0.10698040574789047, 0.4292711615562439, -0.4884350001811981, -0.06572535634040833, 0.21241457760334015, 0.1392541527748108, -0.28996312618255615, -0.028754809871315956, 0.1111321970820427, -0.0790606141090393, 0.3827754259109497, 0.1618761420249939, 0.3025367259979248, 0.3506264388561249, 0.007596188224852085, -0.10522294789552689, 0.002413870068266988, 0.27788224816322327, -0.32671061158180237, 0.2843129634857178, 0.15422742068767548, -0.19103369116783142, -0.002767313038930297, -0.29654136300086975, 0.004996149335056543, -0.3426750600337982, -0.38391971588134766, -0.5891644358634949, 0.3017927408218384, -0.06703557074069977, -0.0017032783944159746, 0.07577849179506302, 0.00906120240688324, 0.18158620595932007, 0.16399511694908142, 0.07589664310216904, -0.060414381325244904, -0.20303873717784882, -0.08307448774576187, 0.1980981081724167, 0.0210394486784935, -0.0836135596036911, 0.25606098771095276, -0.1478540003299713, 0.14954619109630585, -0.14861296117305756, 0.10488370805978775, -0.27817028760910034, -0.13169537484645844, -0.16380804777145386], [0.14816312491893768, -0.26035550236701965, 0.13338109850883484, -0.21449150145053864, -0.5121425986289978, -0.5310221314430237, -0.2677474021911621, 0.35172584652900696, -0.016747349873185158, 0.2603898346424103, -0.005954070948064327, -0.17377008497714996, -0.2734806537628174, -0.243703693151474, 0.14430871605873108, 0.30908942222595215, -0.3092725872993469, 0.32233113050460815, 0.14432044327259064, 0.0511278435587883, 0.19536583125591278, -0.1707218587398529, 0.24474260210990906, -0.39997491240501404, 0.038705822080373764, 0.041200511157512665, 0.010323913767933846, 0.4362104535102844, -0.06394032388925552, -0.05023690685629845, 0.05783247575163841, 0.2622970938682556, 0.07904646545648575, 0.1430758833885193, -0.028423678129911423, -0.3546949028968811, -0.01907506212592125, 0.07086103409528732, -0.012033316306769848, -0.2509663701057434, 0.001686843461357057, -0.32613635063171387, 0.3679422438144684, -0.06519530713558197, 0.2988074719905853, 0.06288956850767136, -0.039190858602523804, -0.2721030116081238, -0.24633876979351044, -0.016181156039237976, -0.21985088288784027, -0.34986141324043274, 0.0714978501200676, 0.06992563605308533, 0.13031460344791412, -0.06135224550962448, 0.039713215082883835, -0.13436895608901978, -0.09430975466966629, -0.12863028049468994, 0.2221565693616867, 0.046002864837646484, 0.3134163022041321, -0.37317097187042236], [-0.06770772486925125, 0.004628848284482956, 0.08854757249355316, -0.00263432739302516, 0.16175521910190582, 0.09272201359272003, -0.21180324256420135, -0.41686612367630005, -0.3445819616317749, -0.11556532233953476, 0.5540897250175476, -0.05763554945588112, 0.11107156425714493, 0.06558447331190109, -0.17007820308208466, -0.08796284347772598, 0.20576351881027222, -0.3311796486377716, -0.2417312115430832, 0.23436227440834045, -0.3350793123245239, 0.4889168441295624, -0.3090190291404724, -0.06673440337181091, -0.11946898698806763, -0.1902574747800827, -0.21099647879600525, -0.03094223514199257, 0.02976900525391102, -0.5115825533866882, -0.11831813305616379, -0.004743512254208326, -0.0817359909415245, -0.2781590521335602, 0.08000605553388596, 0.15655633807182312, -0.253569096326828, 0.417428195476532, 0.2551920711994171, 0.13660027086734772, 0.13871651887893677, 0.3030194938182831, -0.2671983242034912, 0.44809070229530334, -0.05929860100150108, -0.1047007292509079, -0.10548514872789383, 0.07866328209638596, -0.053950801491737366, 0.021791914477944374, 0.18998123705387115, 0.11368539929389954, -0.14693568646907806, 0.08951449394226074, 0.10958503931760788, 0.2961350977420807, -0.16510628163814545, 0.29218560457229614, -0.12070124596357346, 0.10472580790519714, -0.06334615498781204, 0.4322855770587921, -0.07599759101867676, 0.034930430352687836], [-0.003954958636313677, -0.015194445848464966, -0.24393489956855774, 0.03625580668449402, 0.2565668523311615, -0.052501995116472244, -0.07602302730083466, -0.295709490776062, 0.2569268047809601, -0.5442625880241394, 0.23687931895256042, -0.01022771093994379, 0.016684437170624733, -0.2202422022819519, -0.318869948387146, -0.20207799971103668, 0.04522232338786125, -0.04153099283576012, 0.032891277223825455, 0.09506513178348541, -0.1702737808227539, -0.1771407574415207, -0.1469130516052246, 0.055729418992996216, 0.16519246995449066, -0.04086168855428696, -0.24891194701194763, -0.1906336396932602, -0.10524483025074005, -0.2462783008813858, 0.11851482093334198, -0.333176851272583, 0.09177148342132568, -0.35625243186950684, 0.006936866324394941, 0.19671760499477386, -0.18157169222831726, 0.08363129943609238, 0.07818052917718887, 0.1919557899236679, 0.3177679777145386, 0.18248380720615387, -0.24607160687446594, 0.41865646839141846, -0.2230437695980072, 0.10067342221736908, -0.4695647060871124, -0.059802569448947906, -0.21891026198863983, 0.04872019588947296, -0.1369057297706604, 0.2945173382759094, 0.10668939352035522, -0.12127166241407394, -0.1064181923866272, 0.38765913248062134, 0.4004572331905365, 0.2388550192117691, -0.26429423689842224, 0.2819432020187378, -0.25966525077819824, -0.3368479907512665, -0.27615758776664734, 0.09828886389732361], [-0.07000177353620529, -0.15740860998630524, -0.13709865510463715, 0.501670777797699, 0.16437660157680511, 0.15111400187015533, 0.16565771400928497, -0.24997064471244812, -0.2339666336774826, -0.30165982246398926, -0.09188250452280045, -0.2513274550437927, -0.07205445319414139, -0.1107669472694397, -0.4920836389064789, -0.4398769736289978, 0.09405910968780518, 0.14139065146446228, -0.019340205937623978, -0.049660857766866684, -0.17627876996994019, 0.28193244338035583, -0.3707405924797058, 0.32751744985580444, 0.10846633464097977, 0.07337324321269989, -0.21396568417549133, -0.4583203196525574, -0.0475548692047596, -0.10602542757987976, -0.10910545289516449, -0.2223835289478302, 0.009857255965471268, -0.7701492309570312, 0.008864178322255611, 0.12669311463832855, -0.28966251015663147, 0.31424570083618164, 0.04272127151489258, 0.25067010521888733, 0.18043789267539978, 0.4477507770061493, -0.1822948306798935, 0.1750841736793518, -0.0916907861828804, 0.03704151511192322, -0.3022952079772949, -0.22904282808303833, 0.19928085803985596, 0.05759725347161293, 0.13598482310771942, 0.30474036931991577, 0.3172246217727661, 0.08511833101511002, 0.09941209852695465, 0.24467387795448303, -0.029388850554823875, 0.2024581879377365, -0.06445354223251343, -0.49161651730537415, -0.028108322992920876, 0.18356499075889587, -0.5818687677383423, 0.008439334109425545], [0.11957244575023651, -0.16687943041324615, -0.240916907787323, 0.6103112697601318, 0.31681185960769653, 0.5176432132720947, -0.10334211587905884, -0.0889894887804985, 0.043435029685497284, -0.06865908950567245, 0.32278016209602356, -0.21408721804618835, -0.1764751821756363, 0.2786751687526703, -0.18663759529590607, -0.2051566243171692, 0.10451212525367737, 0.14555108547210693, -0.2718310058116913, -0.02884242683649063, -0.2900124788284302, 0.2061702460050583, -0.5857923030853271, 0.3212728202342987, 0.2431599348783493, -0.07703408598899841, -0.08700339496135712, 0.16117733716964722, -0.10579647868871689, -0.06590752303600311, 0.04077399522066116, -0.15442952513694763, -0.1348174512386322, -0.43732747435569763, -0.21230080723762512, 0.3645446300506592, -0.07134660333395004, 0.36901113390922546, 0.03244053199887276, 0.01922811008989811, 0.516565203666687, 0.5091956257820129, -0.03320140764117241, 0.40794676542282104, -0.4054405093193054, 0.04353880509734154, -0.02693353034555912, -0.15097030997276306, 0.1659359186887741, -0.23246413469314575, 0.16024476289749146, -0.028772003948688507, 0.22690506279468536, -0.14131490886211395, -0.39118605852127075, 0.2579626142978668, -0.09194618463516235, -0.05064889416098595, -0.3253607749938965, 0.07572387158870697, -0.4568946361541748, -0.12383313477039337, -0.05253079906105995, 0.13025546073913574], [-0.10951033234596252, 0.140872061252594, 0.21683108806610107, -0.42703938484191895, -0.38091766834259033, -0.018163952976465225, 0.07904054969549179, -0.0510748028755188, -0.20577372610569, 0.5266028642654419, -0.29701530933380127, -0.027224840596318245, -0.036055419594049454, -0.11953077465295792, 0.15414205193519592, 0.5537248253822327, -0.17529849708080292, 0.21340209245681763, -0.016237521544098854, -0.11496128886938095, 0.22558148205280304, -0.42935335636138916, -0.181911438703537, -0.2218732237815857, -0.14911553263664246, 0.24785271286964417, -0.1819542795419693, -0.0798170268535614, 0.020131241530179977, 0.14563190937042236, -0.013143660500645638, 0.22432461380958557, -0.24267716705799103, 0.11891846358776093, -0.1518779695034027, -0.2264654040336609, 0.21453291177749634, -0.29699981212615967, -0.11372459679841995, 0.04889952763915062, -0.1518496423959732, -0.21463479101657867, 0.013466357253491879, -0.1545492559671402, -0.05057157948613167, 0.11787790060043335, 0.12636812031269073, 0.4327833950519562, -0.17482973635196686, 0.06637103110551834, -0.2130567878484726, -0.14410565793514252, -0.07489195466041565, 0.07899553328752518, -0.046262044459581375, -0.25218331813812256, 0.14706674218177795, -0.17094795405864716, -0.19782738387584686, -0.12125974893569946, 0.5296507477760315, -0.1555197685956955, 0.3276064693927765, 0.20339126884937286], [-0.2806766629219055, 0.12836574018001556, 0.08851682394742966, -0.7058917880058289, -0.2936630845069885, -0.2456187754869461, -0.019020434468984604, 0.1004326194524765, -0.06269773095846176, 0.19872722029685974, 0.06581846624612808, -0.058289945125579834, -0.2363712340593338, -0.17424248158931732, 0.34178611636161804, 0.1486845165491104, -0.20781588554382324, 0.062062378972768784, -0.22322265803813934, -0.0970645323395729, 0.09275903552770615, -0.2752307653427124, 0.48777884244918823, 0.08836288005113602, -0.09827426075935364, -0.2169613391160965, 0.06184786930680275, 0.6046515703201294, 0.06460549682378769, 0.37063202261924744, -0.06006089970469475, 0.14166739583015442, -0.020074890926480293, 0.21057607233524323, -0.2764507830142975, -0.04332756996154785, 0.033073943108320236, -0.22541457414627075, -0.22233077883720398, -0.0963398814201355, -0.11900689452886581, -0.2868543565273285, 0.21221686899662018, -0.07689855992794037, 0.07961133122444153, -0.05170438438653946, 0.3485717177391052, 0.22311440110206604, -0.07043594866991043, 0.020072147250175476, 0.09950731694698334, -0.06964937597513199, 0.030437156558036804, 0.0360056534409523, 0.42201751470565796, -0.43683144450187683, 0.06800618767738342, 0.14342722296714783, -0.06904914975166321, 0.05079401284456253, 0.18989743292331696, -0.40251344442367554, -0.2630535066127777, -0.013409274630248547], [-0.005974174942821264, 0.08752579987049103, 0.13927847146987915, -0.13709628582000732, -0.2998236417770386, -0.2996790111064911, 0.1494390070438385, 0.4132101535797119, -0.08045503497123718, 0.12127578258514404, 0.1240752562880516, 0.38425329327583313, 0.25161728262901306, -0.13307984173297882, 0.11374769359827042, 0.07159649580717087, -0.4330807030200958, 0.36841556429862976, -0.2989659309387207, 0.19038783013820648, 0.21114075183868408, -0.16925452649593353, 0.21187351644039154, -0.11575590074062347, -0.17628079652786255, 0.026577377691864967, 0.41758349537849426, -0.04436831921339035, 0.00010997999197570607, 0.07128116488456726, -0.1877192258834839, 0.5033215880393982, -0.01602366380393505, 0.09208270907402039, -0.016253530979156494, -0.07925185561180115, 0.204122394323349, -0.1519213169813156, 0.10799898207187653, -0.05000702291727066, -0.31259700655937195, -0.38604187965393066, 0.4454510509967804, -0.15263214707374573, -0.2700482904911041, 0.2175830453634262, -0.035389479249715805, 0.023015359416604042, 0.11915861815214157, 0.34428420662879944, -0.18334081768989563, -0.4427899420261383, 0.13540217280387878, 0.2561524212360382, 0.09712082892656326, -0.5494873523712158, -0.011458742432296276, -0.0971418023109436, 0.17751552164554596, 0.2935335040092468, 0.42223572731018066, -0.17022469639778137, 0.11756552010774612, 0.02585611678659916], [-0.12502016127109528, -0.1517917960882187, -0.1882762312889099, -0.11861150711774826, -0.26365935802459717, 0.16726526618003845, 0.08417128026485443, 0.1633458137512207, 0.1041402742266655, 0.19274407625198364, -0.358233243227005, 0.14286941289901733, 0.17114514112472534, -0.19887959957122803, 0.013795457780361176, 0.20319867134094238, -0.18886920809745789, -0.059296756982803345, 0.19586560130119324, 0.009692403487861156, 0.2115548700094223, 0.14458732306957245, 0.23166027665138245, -0.10807761549949646, -0.3877415359020233, 0.05126764625310898, -0.011397632770240307, 0.3905217945575714, -0.005965666379779577, -0.2333834171295166, 0.46959996223449707, 0.2038266807794571, -0.00794853363186121, 0.5836647152900696, -0.08045660704374313, -0.18257680535316467, -0.038910236209630966, -0.11361359804868698, -0.09791073203086853, 0.005180662032216787, 0.025192294269800186, -0.04641119763255119, 0.36738258600234985, -0.2789040505886078, -0.012612651102244854, 0.21164275705814362, 0.19921796023845673, -0.2201480120420456, 0.2134077250957489, 0.09833241254091263, 0.07864662259817123, -0.0468236580491066, 0.09988068044185638, 0.2717541754245758, 0.3123428523540497, -0.35493388772010803, 0.21368849277496338, -0.03498038649559021, -0.06847242265939713, -0.030112136155366898, 0.2879916727542877, -0.21486471593379974, -0.024989547207951546, 0.020915577188134193], [-0.1091824471950531, -0.1100955680012703, -0.3017497956752777, 0.27965155243873596, 0.3175375461578369, 0.33382081985473633, -0.17675398290157318, -0.11773541569709778, -0.03133118897676468, -0.2793962061405182, -0.07709558308124542, -0.10077351331710815, -0.2577840983867645, 0.546825647354126, -0.1975739747285843, -0.5786145329475403, 0.16567915678024292, -0.14973603188991547, 0.34149500727653503, -0.05188075825572014, 0.0514337532222271, 0.25859561562538147, -0.08527793735265732, -0.02894050069153309, -0.0943043977022171, 0.08516675978899002, -0.048334669321775436, -0.14350561797618866, -0.06646373867988586, -0.1517786681652069, -0.2779688239097595, -0.10247491300106049, -0.19016751646995544, -0.5506010055541992, 0.02850022166967392, -0.007899817079305649, -0.09263765066862106, 0.21389701962471008, 0.3381315767765045, 0.3961640000343323, -0.02179841324687004, 0.06696263700723648, -0.3603684902191162, 0.11963718384504318, -0.27409425377845764, 0.20579484105110168, -0.15961451828479767, -0.1936386674642563, -0.3558802008628845, -0.32245728373527527, -0.0690503865480423, 0.20105843245983124, 0.09813402593135834, -0.03190610930323601, -0.14250098168849945, 0.45736899971961975, -0.25409117341041565, 0.3432040810585022, -0.19921724498271942, 0.15075835585594177, -0.2926611602306366, 0.002397003350779414, -0.1803223192691803, 0.04914550110697746], [0.07947254180908203, 0.08506092429161072, -0.2719346582889557, 0.1829957813024521, -0.01796048879623413, -0.03419714421033859, 0.06785961240530014, 0.006881412584334612, -0.21237483620643616, -0.1282220035791397, -0.22284281253814697, 0.09010158479213715, 0.11053916066884995, 0.18453551828861237, -0.5405454635620117, -0.40960752964019775, 0.47007912397384644, -0.4202994406223297, -0.20876792073249817, -0.2100542038679123, -0.24476119875907898, 0.23140226304531097, -0.3651672899723053, -0.1405704766511917, 0.17491507530212402, -0.21371868252754211, -0.15016184747219086, -0.128644198179245, 0.16264823079109192, -0.04049267619848251, 0.13537010550498962, -0.28397658467292786, 0.10614605993032455, -0.1383933573961258, -0.19968830049037933, 0.3142535388469696, -0.28376665711402893, 0.10668591409921646, 0.008606599643826485, -0.12435555458068848, 0.21300727128982544, -0.09617225080728531, -0.2244054526090622, 0.19297632575035095, -0.12719011306762695, 0.3438364863395691, -0.5418839454650879, 0.0747719407081604, -0.2349988967180252, 0.015294335782527924, 0.2671695947647095, -0.10208532959222794, 0.11433696001768112, -0.03636304289102554, -0.28140634298324585, 0.22834493219852448, -0.3412942886352539, -0.08253783732652664, -0.21095949411392212, -0.2560529112815857, -0.23155540227890015, 0.09457434713840485, -0.2911149859428406, 0.09745199233293533], [-0.028228146955370903, -0.08367054164409637, 0.27492666244506836, -0.16680841147899628, -0.1279340386390686, 0.07998935133218765, -0.007478486280888319, 0.02762201800942421, 0.22205010056495667, -0.034150972962379456, 0.14993073046207428, 0.28783440589904785, 0.09675279259681702, -0.05616885423660278, 0.39725035429000854, 0.1700439453125, -0.40620747208595276, 0.1620813012123108, 0.08909571170806885, 0.07704895734786987, 0.09957063943147659, -0.15696220099925995, 0.04140002280473709, -0.16319221258163452, -0.3477810323238373, 0.11671371012926102, 0.03427441045641899, 0.3326595425605774, 0.283545583486557, 0.010736789554357529, 0.2556080222129822, 0.41933804750442505, 0.2531144917011261, -0.021619295701384544, -0.12793505191802979, -0.049803879112005234, -0.02837987057864666, -0.3685358166694641, -0.06281440705060959, 0.10781241208314896, -0.197112038731575, -0.28232502937316895, 0.16394412517547607, -0.38533005118370056, 0.3632202744483948, 0.18797770142555237, 0.6584886908531189, 0.2764243185520172, -0.2290559858083725, 0.3288823664188385, 0.012515867128968239, -0.26571565866470337, 0.06189080700278282, -0.024611277505755424, -0.03947598487138748, -0.20550812780857086, 0.3288423717021942, -0.31381654739379883, -0.3894486129283905, -0.23264266550540924, 0.1559842824935913, -0.06406592577695847, 0.017560895532369614, -0.17230425775051117], [0.06427327543497086, -0.19169308245182037, -0.054191187024116516, -0.41495993733406067, -0.09816595166921616, -0.1947556883096695, 0.35527196526527405, 0.2715112268924713, 0.2028404176235199, 0.298452764749527, 0.1609734147787094, 0.18094085156917572, 0.03368963301181793, -0.2241450846195221, 0.07658286392688751, 0.41036027669906616, -0.021656546741724014, 0.23079434037208557, -0.24450236558914185, -0.019320771098136902, 0.12933191657066345, -0.0667581781744957, 0.4187418222427368, -0.21592287719249725, 0.05312392860651016, 0.0803561806678772, 0.17873597145080566, 0.015059380792081356, 0.1503448784351349, 0.08650005608797073, 0.2573191225528717, 0.4430323541164398, -0.426497220993042, 0.05757734924554825, 0.043795544654130936, 0.1011781245470047, 0.03961233049631119, -0.4224458932876587, 0.13673827052116394, -0.4153384566307068, -0.2878560721874237, -0.1706075668334961, 0.32878339290618896, -0.4929795563220978, 0.3084215819835663, 0.4713374376296997, 0.23141735792160034, -0.03280054032802582, -0.12610970437526703, -0.11270099878311157, 0.023000018671154976, 0.10286293923854828, -0.281573623418808, 0.006179892923682928, 0.3306799530982971, -0.10563217848539352, 0.1870250552892685, 0.047749850898981094, 0.10352404415607452, -0.06802953034639359, 0.16591228544712067, -0.05755928158760071, 0.41468968987464905, 0.21434246003627777], [0.4374781548976898, 0.04669482260942459, -0.30536505579948425, 0.0620889738202095, 0.33789965510368347, 0.20023971796035767, -0.24153177440166473, -0.29353657364845276, -0.1249760314822197, -0.15558600425720215, 0.3230397701263428, 0.07089421153068542, 0.13032057881355286, 0.2920704185962677, -0.15154191851615906, -0.242909237742424, 0.00019068930123466998, -0.10122290253639221, 0.11892746388912201, -0.17974355816841125, -0.008704065345227718, 0.47129055857658386, -0.04512421786785126, 0.27569344639778137, -0.019646428525447845, -0.3120545744895935, -0.43024295568466187, -0.6039460301399231, -0.244735985994339, -0.04438561573624611, -0.18074683845043182, -0.22351181507110596, 0.00042387167923152447, -0.06314557790756226, 0.023182863369584084, 0.2008863240480423, -0.024842040613293648, 0.21724340319633484, -0.10064682364463806, 0.002035445999354124, 0.06130976602435112, 0.26953935623168945, -0.3197520971298218, 0.41420242190361023, -0.04085058718919754, 0.08205784857273102, -0.3317996561527252, -0.1307300180196762, -0.30173376202583313, -0.1481878012418747, 0.20852030813694, -0.16786029934883118, 0.377704918384552, 0.10438837110996246, 0.0086178844794631, 0.29448115825653076, 0.15135812759399414, -0.22060981392860413, 0.1827782243490219, -0.40520402789115906, -0.28310275077819824, -0.18638618290424347, -0.09806029498577118, 0.17951920628547668], [-0.3517932593822479, -0.1205187439918518, 0.3496973216533661, -0.19022223353385925, 0.1274566650390625, -0.3231072723865509, 0.38950395584106445, 0.176367849111557, -0.1354285329580307, -0.007544837426394224, 0.0033189081586897373, -0.02217491902410984, 0.15840497612953186, -0.14171715080738068, 0.15738578140735626, 0.5615161657333374, -0.2378389835357666, 0.20078036189079285, 0.06636538356542587, 0.05792812258005142, 0.20800766348838806, 0.003995876759290695, 0.5030863881111145, -0.04456738010048866, -0.06993988901376724, 0.414707750082016, 0.1613653302192688, 0.23444189131259918, 0.023279622197151184, -0.1331901252269745, 0.2397172600030899, -0.12250424921512604, 0.10572859644889832, 0.07328297197818756, -0.17304278910160065, -0.14286348223686218, 0.01852325163781643, -0.10944359004497528, -0.22231699526309967, -0.19220197200775146, -0.344118595123291, -0.4270470440387726, -0.20021653175354004, -0.28331997990608215, 0.23570939898490906, 0.05822109803557396, 0.03703314810991287, 0.06325672566890717, 0.18131496012210846, -0.039678364992141724, 0.17831097543239594, -0.37215304374694824, 0.16435328125953674, -0.22414429485797882, 0.08187125623226166, -0.44504454731941223, -0.11002720892429352, -0.20446686446666718, -0.08642575144767761, 0.18526940047740936, 0.19072683155536652, -0.1938714236021042, 0.471882164478302, -0.08265050500631332], [-0.0714939758181572, 0.1114354133605957, 0.2045515775680542, -0.43379727005958557, -0.4344886243343353, -0.11152486503124237, 0.2605281472206116, 0.14641480147838593, -0.37932994961738586, 0.21773402392864227, -0.1059129387140274, 0.0657818391919136, -0.08362364023923874, -0.22562281787395477, 0.3653028905391693, 0.13729657232761383, -0.21246016025543213, 0.2632058560848236, 0.11094039678573608, 0.21901994943618774, 0.25661778450012207, -0.3338330388069153, 0.20379997789859772, -0.14532636106014252, -0.1463877111673355, 0.06016336381435394, 0.02134581468999386, 0.12267663329839706, 0.23795971274375916, -0.11959823220968246, -0.012164299376308918, 0.07298453152179718, -0.10806029289960861, 0.4168854355812073, 0.42808157205581665, 0.07037205994129181, 0.10231249034404755, 0.15846334397792816, -0.24882325530052185, -0.15604710578918457, -0.43520787358283997, -0.2164502590894699, 0.453159362077713, -0.4165005087852478, 0.18412905931472778, 0.1323111355304718, 0.13014960289001465, -0.0951429232954979, 0.10414046794176102, 0.4931749701499939, -0.08989912271499634, -0.07515211403369904, -0.1280170977115631, -0.07173506170511246, -0.10629196465015411, -0.22631603479385376, 0.11441740393638611, -0.09566868096590042, -0.15253888070583344, -0.05823500081896782, -0.4374098777770996, -0.18486712872982025, 0.20466488599777222, 0.23649893701076508], [0.11410430818796158, 0.24747715890407562, 0.183470219373703, -0.10060243308544159, -0.2765316963195801, -0.32122236490249634, 0.07610812783241272, 0.14433808624744415, -0.19333672523498535, 0.29789456725120544, -0.06078210845589638, 0.35135743021965027, 0.10030346363782883, -0.11060355603694916, 0.14437232911586761, 0.13667522370815277, -0.20708143711090088, -0.23157721757888794, 0.020625637844204903, -0.13958266377449036, 0.4640214741230011, -0.1716393679380417, 0.054623812437057495, 0.22529588639736176, -0.17506201565265656, 0.008199882693588734, 0.28251945972442627, 0.2697220742702484, 0.042883869260549545, 0.31515559554100037, 0.29485180974006653, 0.09433401376008987, -0.3019258677959442, 0.15138690173625946, 0.0067040272988379, -0.3234676420688629, -0.2252151519060135, -0.0497509203851223, 0.18557211756706238, -0.270851194858551, -0.31426897644996643, -0.25110653042793274, -0.026629183441400528, 0.030766215175390244, 0.2952640950679779, 0.16821251809597015, 0.5008893013000488, -0.05796614661812782, 0.3414074778556824, 0.177145853638649, -0.3288116455078125, -0.20055823028087616, 0.23022505640983582, -0.11864727735519409, 0.182987242937088, -0.08309867978096008, 0.3405272662639618, 0.0386076346039772, -0.36803123354911804, 0.0866064578294754, 0.13021010160446167, -0.16221995651721954, 0.20371250808238983, -0.19441615045070648], [0.2472905069589615, 0.020253006368875504, 0.1317770928144455, 0.12895168364048004, 0.19390982389450073, 0.1638718992471695, 0.05595848709344864, 0.0416092611849308, -0.0633663684129715, 0.02779969573020935, 0.04624466598033905, -0.11612256616353989, -0.007721259258687496, -0.009604659862816334, -0.142917662858963, -0.35671237111091614, 0.3531990051269531, 0.009045302867889404, 0.29679787158966064, 0.2148684412240982, -0.17027713358402252, 0.14172151684761047, 0.011320040561258793, 0.3498465418815613, -0.0007914733723737299, -0.04638420417904854, 0.09299922734498978, -0.5452458262443542, 0.10492764413356781, 0.09639551490545273, 0.43077561259269714, 0.05780990049242973, -0.07368986308574677, -0.19798652827739716, 0.08074640482664108, 0.2735317051410675, -0.0372089184820652, 0.14370548725128174, -0.033492036163806915, 0.36040449142456055, 0.46714287996292114, 0.046923939138650894, -0.2227618396282196, 0.5416762828826904, -0.1124112457036972, -0.2504645586013794, -0.22504755854606628, -0.13620038330554962, -0.27553969621658325, -0.3847680687904358, 0.2722204923629761, -0.2507685422897339, -0.20193953812122345, -0.08991000801324844, -0.19148558378219604, 0.1578959971666336, -0.014561082236468792, 0.343149870634079, -0.04396021366119385, -0.07595015317201614, -0.20924687385559082, 0.2932518422603607, -0.3991438150405884, 0.1356908082962036], [-0.03583034500479698, 0.04042700678110123, 0.4434250295162201, -0.3893682658672333, -0.3511568009853363, -0.05891710892319679, -0.27326762676239014, -0.225008025765419, 0.09859553724527359, 0.26475340127944946, -0.15716157853603363, 0.04893476888537407, 0.09342839568853378, -0.23121891915798187, 0.3164052963256836, 0.13696585595607758, -0.17674055695533752, 0.020297007635235786, -0.08202730119228363, -0.011992719024419785, 0.19024939835071564, -0.21619991958141327, 0.4047759473323822, -0.023437995463609695, 0.0600891150534153, -0.0026486048009246588, 0.3569186329841614, 0.24596139788627625, -0.11059165000915527, 0.20066267251968384, 0.14847499132156372, 0.30590057373046875, -0.02638055756688118, 0.09704378247261047, 0.099459208548069, -0.07195361703634262, 0.042567744851112366, -0.5161651968955994, -0.13188616931438446, -0.14376460015773773, -0.22119082510471344, -0.05263904109597206, -0.07601034641265869, -0.4800330102443695, 0.10301430523395538, 0.1357976645231247, 0.03773942217230797, -0.15420423448085785, 0.3516179323196411, 0.1710779219865799, 0.003994537517428398, -0.23878297209739685, -0.11806078255176544, 0.4654236137866974, 0.09435127675533295, -0.23338335752487183, -0.1489550620317459, 0.1185898706316948, -0.307903915643692, -0.18992888927459717, 0.09584355354309082, -0.43120935559272766, 0.6088168621063232, -0.20516519248485565], [0.09336158633232117, -0.40013667941093445, -0.35048791766166687, -0.04793361946940422, 0.12812639772891998, 0.1575741469860077, -0.044571395963430405, -0.2801586985588074, 0.05877130851149559, -0.09294645488262177, 0.2263757288455963, -0.2185124158859253, 0.18214364349842072, 0.025904320180416107, -0.2588401436805725, -0.0402878075838089, 0.14489668607711792, -0.2559172511100769, 0.039832953363657, 0.0944453626871109, -0.07564208656549454, -0.1534561812877655, -0.20916636288166046, 0.09117906540632248, -0.3650936782360077, -0.0015209722332656384, -0.07724753022193909, -0.5364139676094055, 0.08671969175338745, -0.02168423868715763, -0.05264510586857796, -0.14050708711147308, -0.3364429175853729, -0.14267361164093018, 0.014171183109283447, 0.1371094435453415, 0.2141963690519333, 0.20639531314373016, -0.007379049900919199, -0.12913301587104797, 0.3108444809913635, 0.03460109978914261, -0.2582889199256897, 0.34073516726493835, -0.29876571893692017, 0.06685303896665573, -0.5217649936676025, -0.12239161878824234, 0.08857393264770508, -0.07627152651548386, 0.332522988319397, 0.3278176784515381, 0.12764787673950195, 0.10802633315324783, -0.49893951416015625, 0.17206668853759766, -0.11564218997955322, 0.002846207469701767, -0.03836611658334732, -0.18111613392829895, -0.2019704431295395, 0.2903728783130646, -0.3897382318973541, -0.4471955895423889], [0.15348917245864868, 0.2531326115131378, 0.26188790798187256, -0.17682403326034546, -0.07663141191005707, 0.08217629790306091, -0.042812369763851166, 0.2800058424472809, -0.11135853826999664, 0.2488979548215866, -0.041605886071920395, 0.10626237839460373, -0.0823955237865448, -0.11330816894769669, 0.13708269596099854, 0.6352264881134033, -0.022505825385451317, 0.2396254688501358, 0.2473561018705368, 0.02823239378631115, 0.032127417623996735, -0.1349673718214035, 0.11558026820421219, -0.05906179919838905, -0.09557937830686569, -0.08450134098529816, 0.2428203672170639, -0.0456458143889904, 0.40788528323173523, 0.10865592956542969, -0.013642835430800915, -0.09967309236526489, 0.2840445041656494, 0.11426156014204025, -0.4143972098827362, 0.10886494070291519, 0.05386306717991829, -0.0014649678487330675, 0.25940370559692383, -0.34905359148979187, -0.10102323442697525, -0.422332763671875, 0.1465090811252594, -0.5746234655380249, 0.023931894451379776, -0.04319651797413826, 0.3404952585697174, -0.08135563880205154, 0.006702563259750605, 0.3038991093635559, -0.2329229861497879, -0.0010813976405188441, -0.10676436126232147, 0.25343140959739685, 0.45187172293663025, -0.1674284189939499, 0.07177581638097763, -0.0069069149903953075, -0.13320422172546387, 0.0521756075322628, 0.04843657463788986, -0.37801259756088257, 0.1586969494819641, -0.41256213188171387], [-0.21343104541301727, 0.1870397925376892, -0.32984939217567444, 0.09836997836828232, 0.5473311543464661, -0.040580157190561295, -0.30060622096061707, 0.08911105245351791, -0.11135002225637436, -0.26348719000816345, 0.31607264280319214, -0.2632969319820404, -0.28988611698150635, 0.14451463520526886, -0.27472344040870667, -0.4276951551437378, 0.14758893847465515, -0.004564410075545311, 0.29805877804756165, -0.23772212862968445, -0.13490335643291473, 0.3659090995788574, -0.6586130261421204, -0.07697869837284088, 0.020391548052430153, 0.11369819194078445, -0.26878833770751953, -0.09268250316381454, 0.21233612298965454, 0.1741740107536316, 0.008625094778835773, -0.3838144838809967, -0.06462501734495163, -0.36740806698799133, 0.16471131145954132, 0.3971801996231079, -0.26281434297561646, -0.01411810889840126, -0.059117238968610764, 0.36787235736846924, 0.5606221556663513, 0.4172666370868683, -0.2826946973800659, 0.2470179945230484, 0.02429155632853508, 0.14973758161067963, -0.06275177747011185, -0.16255654394626617, 0.33218899369239807, 0.10162489861249924, 0.11354967206716537, -0.058166127651929855, 0.07365261763334274, 0.178353950381279, -0.2581751048564911, 0.4171268939971924, 0.03661872074007988, 0.12351372838020325, 0.4129980802536011, 0.1956254243850708, -0.06141190603375435, 0.10145086795091629, -0.14533111453056335, -0.0715203583240509], [0.18125008046627045, 0.10855576395988464, 0.35768553614616394, -0.3118194043636322, -0.18330182135105133, -0.011109471321105957, -0.05855729803442955, 0.12774474918842316, -0.25795289874076843, 0.2384495586156845, -0.19737745821475983, 0.4397021234035492, -0.33358344435691833, -0.3321879506111145, 0.10076514631509781, 0.43639469146728516, 0.10154757648706436, 0.15343983471393585, -0.08373982459306717, 0.04756500944495201, 0.4124489426612854, -0.09317874163389206, 0.42466166615486145, -0.35012736916542053, -0.4171309471130371, 0.14251166582107544, 0.19731548428535461, 0.28275632858276367, 0.07839608937501907, 0.054223716259002686, -0.079163558781147, 0.4413909614086151, 0.22133903205394745, 0.016924533993005753, -0.18927928805351257, -0.30856195092201233, 0.005881050601601601, -0.3607487082481384, 0.09311287105083466, -0.0689505860209465, -0.33702099323272705, 0.05677212029695511, 0.3268525302410126, -0.150708869099617, 0.31899577379226685, 0.030885346233844757, -0.08622931689023972, 0.004443766083568335, 0.2424117624759674, 0.0012517586583271623, 0.17852546274662018, -0.03306258097290993, -0.25712326169013977, -0.19475968182086945, -0.058432918041944504, -0.3381137549877167, 0.07407740503549576, -0.33913445472717285, 0.05840838700532913, 0.07938376814126968, 0.10233008116483688, -0.5083092451095581, 0.04340501129627228, -0.10764778405427933], [0.055977050215005875, 0.00592592591419816, 0.39197197556495667, -0.5149465203285217, -0.39604222774505615, -0.38073116540908813, 0.19504278898239136, -0.09062829613685608, -0.10527395457029343, 0.19662049412727356, -0.3004082441329956, 0.09581779688596725, -0.03855747729539871, 0.14709119498729706, 0.46600252389907837, 0.46810483932495117, -0.3302628993988037, 0.03737649694085121, -0.10355687141418457, -0.08968692272901535, 0.03313398361206055, -0.15676653385162354, 0.14550994336605072, -0.1899995058774948, -0.10868804156780243, -0.009024344384670258, 0.4162910580635071, 0.0390809141099453, 0.027510356158018112, -0.08462962508201599, 0.3148458003997803, 0.13171043992042542, -0.01331640686839819, 0.2982158958911896, -0.12352599203586578, 0.011955912224948406, -0.0380047969520092, -0.36973196268081665, 0.14112266898155212, 0.24614378809928894, -0.08166874200105667, 0.12938706576824188, 0.4829820394515991, -0.5886709094047546, -0.023377317935228348, -0.10853004455566406, -0.030966073274612427, 0.09716135263442993, 0.03666191175580025, -0.0994286760687828, -0.07906809449195862, -0.17573533952236176, 0.4413442015647888, -0.1814115196466446, 0.27707570791244507, 0.055346690118312836, 0.11598248779773712, -0.15303665399551392, 0.11411373317241669, 0.31123045086860657, 0.0492544025182724, 0.0009680623188614845, 0.1808258295059204, -0.07772403955459595], [0.009418577887117863, 0.2982906699180603, 0.33277708292007446, -0.25475800037384033, -0.26864346861839294, -0.3675372004508972, -0.22219417989253998, 0.19053561985492706, 0.2187195122241974, 0.0012911519734188914, -0.030166834592819214, 0.34715357422828674, 0.0023666557390242815, -0.2566722333431244, 0.35001420974731445, 0.3779618442058563, -0.01717641018331051, 0.08048926293849945, 0.15707416832447052, -0.38158172369003296, 0.3045119345188141, -0.29071927070617676, -0.002771493047475815, -0.03905196115374565, 0.12735377252101898, -0.062166206538677216, 0.19736021757125854, 0.1634519100189209, 0.22426678240299225, -0.3398664891719818, -0.007045588456094265, 0.17933957278728485, 0.0632023736834526, 0.13721425831317902, 0.11136281490325928, -0.2002592533826828, 0.3224659264087677, -0.1965743452310562, 0.027490269392728806, -0.4294775128364563, -0.37721601128578186, -0.10777516663074493, 0.28818416595458984, -0.36571192741394043, 0.23452329635620117, -0.09469850361347198, 0.4371752142906189, -0.04925094544887543, 0.08845865726470947, -0.1672101616859436, 0.3627353608608246, -0.048358164727687836, 0.26637396216392517, 0.13645945489406586, -0.21568767726421356, -0.25340932607650757, 0.15480510890483856, 0.13395696878433228, -0.22637535631656647, 0.12424416095018387, 0.45517680048942566, -0.18839330971240997, -0.029070895165205002, 0.13283319771289825], [-0.08325294405221939, -0.009731938131153584, 0.5057125687599182, -0.007840684615075588, -0.28688010573387146, -0.3212392032146454, -0.16648632287979126, 0.1557861566543579, 0.061808954924345016, -0.0016115414910018444, -0.15533022582530975, 0.47029635310173035, -0.07034794241189957, -0.559890866279602, 0.5263770222663879, 0.13954541087150574, -0.44271713495254517, 0.329325795173645, 0.020211627706885338, -0.018494563177227974, -0.1219940036535263, -0.18889975547790527, 0.2088174819946289, -0.395220547914505, -0.24045135080814362, -0.0704813003540039, 0.03209340572357178, 0.04884149879217148, -0.01515001431107521, 0.1367521733045578, 0.1984175592660904, -0.05134394019842148, -0.12141492962837219, 0.3332146108150482, -0.3261939585208893, -0.09109029173851013, -0.16585597395896912, -0.21426281332969666, 0.0965326651930809, -0.19686958193778992, -0.22254817187786102, -0.303356409072876, 0.0814376175403595, -0.2967189848423004, -0.02769615687429905, 0.029158679768443108, 0.16869355738162994, -0.029842805117368698, 0.27476009726524353, -0.1525978446006775, -0.28640836477279663, 0.025644131004810333, -0.21738892793655396, 0.03209859877824783, 0.07919127494096756, -0.2635427713394165, -0.10006823390722275, -0.2026662975549698, 0.027904009446501732, -0.18451374769210815, 0.1844087690114975, -0.017310645431280136, 0.22263237833976746, 0.3192305564880371], [0.11011574417352676, 0.19468554854393005, -0.3253539502620697, 0.21271024644374847, 0.3847516179084778, 0.1767416149377823, 0.027992546558380127, -0.2351035624742508, -0.31319698691368103, -0.060657914727926254, -0.05422122776508331, -0.11248055845499039, 0.21354831755161285, -0.0963749811053276, -0.24539242684841156, -0.21056191623210907, -0.23711182177066803, -0.3717441260814667, -0.12141634523868561, -0.3381800055503845, -0.17683501541614532, 0.002748450031504035, -0.18036243319511414, 0.2233068197965622, -0.057820096611976624, 0.41312551498413086, -0.06565190851688385, -0.15563052892684937, -0.13261115550994873, -0.20707370340824127, -0.20391999185085297, -0.3391534984111786, 0.29446449875831604, -0.30923178791999817, 0.2509416341781616, 0.17000074684619904, 0.03899748995900154, 0.03882415592670441, 0.09593867510557175, -0.0657493844628334, 0.5838972330093384, 0.38098469376564026, 0.024743394926190376, 0.38469839096069336, -0.12009534239768982, 0.054058849811553955, -0.03186608850955963, -0.1969122588634491, -0.3406451642513275, -0.37816935777664185, -0.07539384067058563, 0.015278569422662258, -0.23362471163272858, 0.04406359791755676, 0.011012502945959568, 0.06495965272188187, -0.10607057809829712, 0.08142544329166412, 0.021258816123008728, -0.049148306250572205, -0.32421666383743286, 0.27848300337791443, -0.18931010365486145, 0.0056511047296226025], [0.00888659618794918, -0.0312192402780056, -0.26561981439590454, 0.23287001252174377, 0.14483793079853058, 0.36461764574050903, -0.25289997458457947, -0.16663628816604614, -0.047147635370492935, -0.5179225206375122, 0.10766860097646713, -0.44935956597328186, 0.07211092859506607, -0.028183573856949806, -0.3663959503173828, -0.654778242111206, 0.17777487635612488, 0.062176723033189774, -0.158733069896698, -0.3366811275482178, 0.09172753244638443, 0.33350223302841187, -0.3516058027744293, 0.024556368589401245, 0.23379285633563995, 0.16874434053897858, -0.3325810730457306, -0.42539212107658386, -0.06297624111175537, -0.26615604758262634, -0.06148277223110199, 0.022181889042258263, -0.18330568075180054, 0.086420439183712, -0.0423828661441803, 0.19893747568130493, -0.1167365238070488, -0.07386931777000427, 0.4566119611263275, -0.0069550275802612305, 0.3300102651119232, 0.1106647402048111, -0.49714764952659607, 0.3785261809825897, -0.12140050530433655, -0.16269536316394806, 0.06234849989414215, 0.11929117888212204, 0.06486956775188446, -0.1198861226439476, 0.09555960446596146, -0.014084424823522568, 0.08973667770624161, -0.057578444480895996, -0.08146166801452637, 0.14858150482177734, -0.06547050923109055, 0.001927540055476129, 0.02786194160580635, 0.14778847992420197, -0.715151846408844, 0.08095375448465347, -0.44295287132263184, -0.23573730885982513], [-0.08146121352910995, 0.1889611780643463, -0.09893479198217392, -0.15064407885074615, -0.24057607352733612, -0.4154835045337677, -0.2777785062789917, -0.1288149505853653, 0.10584422200918198, 0.5432253479957581, -0.04166325181722641, 0.09735321253538132, 0.1480666697025299, -0.16395236551761627, 0.12627728283405304, 0.5196153521537781, -0.17887547612190247, 0.2029898464679718, -0.015587140806019306, -0.13184641301631927, -0.11354472488164902, -0.27034205198287964, 0.302152544260025, 0.14189325273036957, -0.01881781965494156, 0.013743245974183083, 0.20592452585697174, 0.33586233854293823, 0.12023449689149857, 0.1892608106136322, 0.05834970623254776, 0.34059497714042664, 0.19524450600147247, 0.1311376392841339, -0.021556807681918144, -0.3276236355304718, -0.015656666830182076, -0.39460641145706177, 0.28251418471336365, 0.17574331164360046, -0.48904961347579956, -0.675994873046875, 0.22709940373897552, -0.46682584285736084, 0.012275664135813713, 0.06827549636363983, -0.044685401022434235, -0.1783439964056015, 0.1606721431016922, 0.21959209442138672, 0.2065180093050003, -0.08539380133152008, -0.07391293346881866, -0.10876423865556717, 0.006409074645489454, -0.3985016942024231, 0.3065204918384552, -0.1816832274198532, 0.03264308720827103, -0.09045277535915375, -0.1522558331489563, 0.1656164675951004, 0.20628559589385986, 0.14914099872112274], [-0.24379439651966095, -0.09022476524114609, -0.4422585666179657, 0.2301805317401886, 0.4299921989440918, -0.040344469249248505, 0.1576569378376007, 0.038054998964071274, -0.1405140608549118, 0.06840553134679794, 0.09463773667812347, 0.014370991848409176, 0.19344328343868256, -0.12667132914066315, 0.23461118340492249, -0.25775495171546936, 0.3845751881599426, 0.05984780192375183, 0.17478018999099731, -0.11436151713132858, -0.2382979542016983, 0.5146663784980774, -0.14742901921272278, 0.17261214554309845, 0.01429606880992651, -0.0678011029958725, -0.23234274983406067, -0.07517565786838531, 0.028082357719540596, -0.07363197207450867, -0.3070589303970337, -0.19760814309120178, -0.2537277340888977, -0.12085121124982834, -0.17397040128707886, 0.01696733385324478, 0.02737763524055481, 0.2970505654811859, 0.18523165583610535, 0.14002294838428497, 0.20744800567626953, 0.6326502561569214, -0.2669779360294342, 0.13851729035377502, -0.3482154607772827, 0.06770353764295578, -0.4091612696647644, 0.09879183024168015, -0.1701480895280838, -0.21118253469467163, -0.2276868373155594, -0.048459287732839584, 0.037023939192295074, -0.07098107784986496, -0.34837424755096436, 0.10186447948217392, 0.010846232064068317, 0.2935422360897064, -0.06428022682666779, -0.17288076877593994, -0.3299528956413269, 0.2269297093153, -0.31513187289237976, -0.20062991976737976], [0.2639595866203308, -0.025853348895907402, -0.16871300339698792, 0.3062001168727875, 0.3332275450229645, 0.11293493956327438, 0.1120738685131073, 0.21525131165981293, -0.031050575897097588, -0.23734232783317566, 0.25904184579849243, -0.07795865088701248, 0.30625033378601074, 0.009269585832953453, -0.4184865355491638, -0.2973291575908661, 0.30397188663482666, -0.16547785699367523, 0.14944738149642944, -0.1271658092737198, 0.06508360058069229, -0.03661324083805084, -0.3126943111419678, 0.3567460775375366, 0.008353108540177345, -0.1372632533311844, -0.17926377058029175, -0.08764321357011795, -0.22723352909088135, -0.3275229334831238, -0.31364014744758606, -0.3552280068397522, -0.3492512106895447, 0.058323755860328674, 0.11572057753801346, 0.2392650693655014, -0.2652195990085602, 0.03298508748412132, 0.31705188751220703, 0.6482268571853638, 0.4487554132938385, 0.034011002629995346, -0.0035444467794150114, 0.38300952315330505, -0.092505544424057, -0.22594644129276276, -0.3440895676612854, 0.15532106161117554, -0.09514892101287842, -0.0815611407160759, 0.3618979752063751, 0.28454920649528503, -0.11258911341428757, 0.011259444057941437, -0.1205335184931755, 0.27869558334350586, -0.16929438710212708, 0.02146763540804386, -0.12560953199863434, -0.427284836769104, -0.14832182228565216, -0.14798645675182343, 0.09557276964187622, -0.1312732696533203], [0.06763613969087601, -0.13520744442939758, -0.08607464283704758, 0.4444723427295685, 0.15781764686107635, -0.03719622641801834, -0.2970565855503082, 0.10213271528482437, -0.3718649446964264, -0.167496457695961, 0.19122323393821716, -0.3032567799091339, 0.05110802501440048, 0.2902189791202545, -0.4829775393009186, -0.2884218692779541, -0.1798788607120514, -0.27036091685295105, -0.022267239168286324, 0.3221230208873749, 0.025626877322793007, 0.43370118737220764, -0.300425261259079, 0.2134811282157898, -0.11284825205802917, 0.007951409555971622, -0.37090593576431274, -0.05066701024770737, 0.06258706748485565, 0.059274058789014816, 0.15044370293617249, -0.1899116337299347, -0.0014731712872162461, -0.21665383875370026, 0.05546851456165314, 0.2308243066072464, 0.19391866028308868, -0.13001090288162231, 0.21765947341918945, -0.116766557097435, 0.22096872329711914, 0.2669912278652191, -0.26396656036376953, 0.19613555073738098, -0.36340779066085815, -0.228144571185112, -0.15778763592243195, 0.04551725462079048, -0.088093601167202, -0.15049731731414795, 0.04776459187269211, 0.4567139744758606, 0.10849233716726303, -0.3301476836204529, -0.29117992520332336, 0.2755596935749054, 0.07190529257059097, 0.3856443762779236, 0.17802686989307404, -0.2235340029001236, -0.18985244631767273, -0.09930301457643509, -0.1504507064819336, 0.1502627730369568], [0.15505431592464447, -0.06705614924430847, 0.26622292399406433, -0.11762033402919769, -0.5102548599243164, -0.05220377817749977, -0.08576634526252747, 0.1748918741941452, -0.17565573751926422, 0.2256375253200531, 0.10063637793064117, 0.09627378731966019, 0.20459513366222382, -0.015467309392988682, 0.4457014203071594, 0.3827880620956421, -0.22313521802425385, 0.32772037386894226, 0.07128100097179413, -0.29595091938972473, -0.15847957134246826, -0.27578863501548767, 0.6133957505226135, -0.1785343885421753, -0.2370777428150177, 0.07482963055372238, 0.09128924459218979, 0.3508365750312805, 0.32079869508743286, 0.18307246267795563, 0.15515978634357452, -0.09471306949853897, -0.3223179280757904, -0.024940263479948044, 0.4079623818397522, -0.31584206223487854, -0.014410927891731262, -0.3676053285598755, -0.03300056234002113, -0.1897526979446411, -0.31709542870521545, -0.3654225766658783, 0.2796526253223419, -0.3375473916530609, 0.0649760365486145, 0.06304822862148285, 0.26866960525512695, 0.03874935209751129, 0.07740765064954758, 0.12637263536453247, 0.0767703726887703, -0.026358868926763535, 0.02208879590034485, 0.0468408577144146, 0.27617719769477844, -0.12841497361660004, -0.2535075843334198, -0.4261992275714874, -0.14296647906303406, 0.2192411869764328, 0.3411271572113037, -0.32644540071487427, -0.10093387961387634, 0.038090839982032776], [-0.04130071774125099, -0.02974822372198105, -0.4436695873737335, 0.043146733194589615, 0.21015191078186035, 0.21960966289043427, -0.054614804685115814, 0.1812589466571808, -0.17148204147815704, -0.003962222021073103, 0.2639753520488739, -0.19930610060691833, -0.20698685944080353, -0.08440590649843216, -0.08963635563850403, -0.48091185092926025, 0.09453053027391434, -0.19175538420677185, -0.19610294699668884, 0.1010519340634346, -0.3423701822757721, 0.34388071298599243, -0.2415163367986679, 0.16747735440731049, 0.13296857476234436, 0.29184845089912415, 0.0076029640622437, -0.5896902084350586, -0.17374339699745178, -0.16665400564670563, -0.29819172620773315, -0.11008940637111664, 0.18531379103660583, 0.05848056823015213, -0.054140571504831314, -0.23534531891345978, 0.006569272372871637, 0.275016188621521, -0.08819187432527542, 0.18583455681800842, 0.42517387866973877, 0.04093784838914871, -0.2909599244594574, 0.12575769424438477, -0.3084457814693451, 0.06418005377054214, -0.15028458833694458, -0.05798459053039551, 0.15177923440933228, -0.1299060434103012, 0.3253381848335266, 0.14475680887699127, -0.01314880233258009, -0.32443511486053467, 0.016417497768998146, 0.7346148490905762, -0.0006104693748056889, 0.02867196500301361, -0.24831902980804443, -0.10399560630321503, -0.0009265335975214839, 0.09071634709835052, -0.15551771223545074, 0.18842995166778564], [0.23938870429992676, 0.05693752318620682, 0.21067941188812256, -0.18839353322982788, -0.5201662182807922, -0.03835609182715416, 0.26102614402770996, 0.411098450422287, 0.20851008594036102, 0.24876604974269867, -0.045437540858983994, 0.10330332815647125, 0.11372220516204834, -0.24498280882835388, 0.2519057095050812, 0.6245919466018677, -0.40404775738716125, -0.18988369405269623, -0.16549672186374664, -0.07031013071537018, 0.09211880713701248, 0.025112871080636978, 0.4805746078491211, -0.22819145023822784, -0.0020649682264775038, 0.02957010455429554, -0.03783673420548439, 0.07096594572067261, 0.22584810853004456, 0.2260473519563675, -0.047183871269226074, 0.20610308647155762, 0.25084227323532104, 0.11640720814466476, -0.028099261224269867, -0.23435631394386292, -0.27202191948890686, -0.16392196714878082, -0.3393546938896179, 0.16563181579113007, -0.46879109740257263, -0.27126485109329224, 0.24213549494743347, -0.13437624275684357, 0.09184110164642334, 0.15591156482696533, 0.19806885719299316, 0.21486715972423553, 0.26895830035209656, -0.19426651298999786, -0.22354795038700104, 0.09717641770839691, -0.0198398195207119, 0.31677594780921936, -0.24640095233917236, -0.11708009988069534, 0.11931388825178146, 0.06546387821435928, 0.03894679993391037, 0.21197734773159027, -0.06041474640369415, -0.005458140280097723, 0.17280647158622742, -0.09452018141746521], [-0.12341338396072388, 0.027203721925616264, -0.4122338593006134, 0.39341431856155396, -0.0003174727607984096, 0.3944862484931946, 0.06168922409415245, -0.2956787645816803, 0.1821223348379135, -0.25762510299682617, -0.03734882175922394, -0.0999654158949852, 0.0022506664972752333, 0.04401334002614021, -0.013826468959450722, -0.37225452065467834, -0.025527413934469223, -0.04813428223133087, 0.2670990228652954, 0.26631268858909607, 0.20263494551181793, 0.4572867453098297, -0.19372811913490295, 0.042308397591114044, 0.334907203912735, -0.2722429633140564, -0.2647145688533783, -0.1980644315481186, -0.07556215673685074, 0.1955968737602234, -0.28132322430610657, -0.535369873046875, 0.11812189221382141, -0.5029621124267578, 0.13753287494182587, 0.15582828223705292, -0.19862085580825806, -0.003265336388722062, 0.437358558177948, -0.14806585013866425, 0.6093566417694092, 0.4342789649963379, -0.16139991581439972, 0.3116995692253113, -0.14830127358436584, -0.023645535111427307, -0.19390693306922913, 0.1562148928642273, 0.08068782836198807, 0.17664344608783722, 0.35175657272338867, -0.12961770594120026, -0.08676889538764954, -0.39982327818870544, -0.12750767171382904, 0.4391479194164276, -0.01910056546330452, 0.12691767513751984, -0.0039967987686395645, 0.17662057280540466, 0.005649580620229244, 0.32577913999557495, -0.1549808830022812, -0.11934641003608704], [0.01750173047184944, -0.0019204937852919102, -0.4294527769088745, 0.368936151266098, 0.34222766757011414, 0.2695865333080292, -0.08923844993114471, -0.03893314674496651, 0.05420069023966789, -0.2251112163066864, 0.2861529290676117, -0.3479611277580261, 0.23616303503513336, 0.21953393518924713, -0.00185194646473974, -0.6629717946052551, 0.07504357397556305, -0.19255365431308746, -0.04258362203836441, 0.08349967747926712, 0.255246639251709, 0.11272063106298447, -0.6057050824165344, 0.02619442716240883, 0.10264591872692108, 0.002321065403521061, 0.19185858964920044, -0.012882424518465996, 0.2860102355480194, -0.2579743564128876, 0.09484679251909256, -0.37478992342948914, -0.03216653689742088, -0.5974836945533752, -0.15063461661338806, -0.2593293786048889, -0.2951354384422302, 0.23695044219493866, -0.02456853538751602, -0.07054273784160614, 0.31724369525909424, 0.3904617726802826, -0.38021260499954224, 0.10988999158143997, -0.16009622812271118, -0.3989015221595764, -0.4352976381778717, 0.18083418905735016, -0.07994930446147919, -0.1350427269935608, 0.09433696419000626, -0.030802151188254356, -0.1646227389574051, 0.2247687429189682, 0.030675247311592102, 0.42071932554244995, 0.13992266356945038, 0.04448804631829262, 0.24705161154270172, -0.13970428705215454, -0.3430309593677521, -0.052344534546136856, -0.2774956524372101, 0.1570449322462082], [-0.20825493335723877, -0.31817519664764404, -0.21204644441604614, 0.1376792937517166, 0.2898644804954529, 0.13057845830917358, -0.3353215456008911, -0.025519724935293198, 0.052767954766750336, -0.14815104007720947, -0.05820124223828316, -0.2332909256219864, 0.5597203373908997, 0.05563366040587425, -0.5212184190750122, -0.5357756614685059, 0.2426644116640091, -0.2936525344848633, 0.13354244828224182, 0.0904129222035408, -0.2374953031539917, 0.21245945990085602, -0.14575503766536713, 0.3731226623058319, -0.05566944181919098, 0.03387131541967392, -0.13874855637550354, -0.2858213782310486, 0.18667897582054138, -0.1451689451932907, -0.38591402769088745, -0.1060526892542839, -0.0026683802716434, -0.21887244284152985, -0.2545708417892456, 0.40724650025367737, 0.0346834696829319, -0.05227963626384735, -0.03684939071536064, 0.061512723565101624, 0.21849387884140015, 0.3985126316547394, -0.00016541198419872671, 0.40268415212631226, 0.04313357174396515, -0.21692128479480743, -0.16091258823871613, -0.13560591638088226, 0.042415931820869446, -0.042015355080366135, -0.24104368686676025, -0.13691073656082153, -0.02546824887394905, -0.13811129331588745, -0.20854905247688293, 0.7354345321655273, -0.13718964159488678, -0.054363030940294266, -0.12468301504850388, -0.044114138931035995, -0.13379335403442383, 0.04645420238375664, -0.24187979102134705, 0.1596650928258896], [-0.5079707503318787, 0.3424842953681946, -0.2567686438560486, 0.26211702823638916, -0.0002625238266773522, 0.26675012707710266, -0.010704459622502327, -0.20257483422756195, -0.1063433587551117, -0.2789817154407501, 0.26642096042633057, 0.02672865428030491, -0.11910321563482285, 0.28209570050239563, -0.2587067186832428, -0.5448170304298401, 0.004921287763863802, -0.12402686476707458, 0.28882071375846863, -0.029085440561175346, -0.03830398619174957, 0.14033447206020355, -0.13624942302703857, 0.3191671073436737, 0.23049452900886536, -0.15130503475666046, -0.19073180854320526, -0.30914539098739624, 0.44926783442497253, -0.2554335296154022, -0.06622844934463501, 0.06122594699263573, -0.042887281626462936, -0.24413520097732544, -0.13695694506168365, 0.19834193587303162, -0.12185358256101608, 0.08348880708217621, -0.12540309131145477, 0.0323866605758667, 0.3840743601322174, 0.22247575223445892, -0.059211913496255875, 0.5801487565040588, -0.24723553657531738, -0.06764870882034302, -0.2991068959236145, -0.09295584261417389, -0.0789298564195633, -0.4140693247318268, 0.10411494970321655, 0.4204639494419098, 0.05671153962612152, -0.05595269054174423, 0.049609553068876266, 0.14013922214508057, -0.041446395218372345, -0.17324784398078918, -0.02785639464855194, -0.06601495295763016, -0.22637629508972168, 0.20293784141540527, 0.2601549029350281, -0.17577609419822693], [-0.011571478098630905, -0.03800932317972183, -0.3712056279182434, 0.33305585384368896, 0.130415141582489, 0.11822604387998581, 0.011231186799705029, -0.17638200521469116, -0.10958366096019745, 0.13619671761989594, 0.11389102041721344, -0.20381522178649902, 0.11334129422903061, -0.16264934837818146, -0.1817832738161087, -0.33104196190834045, 0.38637402653694153, -0.3291308283805847, 0.23661018908023834, 0.30797064304351807, -0.2251487672328949, 0.02587687410414219, -0.38407060503959656, -0.17427505552768707, 0.14780722558498383, -0.09556455165147781, -0.30431103706359863, -0.4982220530509949, -0.3047926127910614, -0.2768571376800537, 0.01560960989445448, -0.39893266558647156, -0.15602195262908936, -0.400429904460907, -0.2577703893184662, 0.014419186860322952, 0.028938496485352516, -0.11338140815496445, -0.10470478236675262, 0.22296208143234253, -0.09790646284818649, 0.12045768648386002, 0.08009067177772522, 0.5025765299797058, -0.29660215973854065, -0.0863373875617981, 0.21027915179729462, -0.26310691237449646, -0.16734015941619873, -0.09524649381637573, 0.31833112239837646, -0.044424694031476974, 0.09830492734909058, -0.006211183033883572, -0.01863444596529007, 0.12961536645889282, -0.17393338680267334, 0.17887653410434723, 0.21929149329662323, 0.04819527640938759, -0.3857220709323883, -0.0848667323589325, -0.0384594202041626, -0.039429329335689545], [0.1304977834224701, 0.05893741920590401, 0.07416769117116928, -0.09374535083770752, -0.42376524209976196, -0.24281854927539825, 0.14661091566085815, -0.20592622458934784, 0.13348326086997986, 0.3998499810695648, -0.15083685517311096, 0.25874507427215576, -0.052780237048864365, 0.09895467013120651, 0.2320748120546341, 0.05661996081471443, -0.24708318710327148, 0.21827808022499084, -0.08514086157083511, -0.0738939642906189, -0.11774823069572449, -0.24245178699493408, 0.30849501490592957, 0.042105887085199356, -0.2312638759613037, 0.06247431039810181, -0.17184065282344818, 0.20705750584602356, 0.16850942373275757, -0.2067025899887085, 0.2614257037639618, 0.0697949230670929, 0.04409605637192726, 0.10439874976873398, -0.13352195918560028, -0.12814152240753174, 0.4686882793903351, 0.06498819589614868, 0.20152445137500763, -0.03196682035923004, -0.18118654191493988, -0.4718848168849945, 0.24851451814174652, -0.2887575030326843, 0.6256551742553711, 0.1763024777173996, 0.06489455699920654, 0.28271663188934326, 0.5032033324241638, -0.10022681951522827, -0.15567445755004883, -0.2763129472732544, -0.229640930891037, 0.09551995992660522, 0.0819283202290535, -0.18483304977416992, 0.11814245581626892, 0.07650195062160492, 0.1767757683992386, 0.11661455035209656, 0.24960185587406158, -0.4380880296230316, 0.1893785148859024, -0.10224538296461105], [-0.27014851570129395, 0.030214063823223114, -0.23486681282520294, 0.328617125749588, 0.08855223655700684, 0.020450010895729065, -0.009908639825880527, 0.007026436273008585, -0.15147846937179565, -0.499565452337265, -0.10268464684486389, -0.5064660906791687, 0.03877219930291176, 0.2219037413597107, 0.12833702564239502, -0.21489277482032776, 0.13870441913604736, -0.470981627702713, -0.11842229962348938, 0.05729926750063896, -0.2950233817100525, 0.06409195810556412, 0.06302481144666672, 0.0325588695704937, 0.14155399799346924, 0.11758463084697723, 0.0006225519464351237, -0.29011040925979614, -0.06584374606609344, 0.10768511146306992, -0.07095274329185486, -0.10180015861988068, -0.04467574879527092, -0.19400379061698914, -0.11297594010829926, 0.3578706979751587, -0.04715777188539505, 0.5255770683288574, 0.5106947422027588, 0.16206145286560059, 0.14022961258888245, 0.34338587522506714, -0.11309943348169327, 0.41739505529403687, -0.1046939492225647, -0.007775795180350542, -0.04020094871520996, -0.12299595773220062, -0.1825973391532898, -0.09085965901613235, 0.40324386954307556, 0.04420899227261543, -0.11699250340461731, 0.17688612639904022, -0.3675495386123657, 0.3171238601207733, 0.2290254384279251, -0.03933154419064522, 0.13500793278217316, -0.2802579998970032, -0.04649334400892258, -0.09392128884792328, -0.05950278416275978, 0.07132752239704132], [0.12528425455093384, 0.027299821376800537, 0.07034926116466522, -0.1846756786108017, -0.0228424072265625, -0.2842617630958557, -0.023359917104244232, 0.3202986717224121, -0.10954888164997101, 0.04284820333123207, -0.14248114824295044, 0.3868612051010132, -0.005843574181199074, -0.07658886909484863, 0.20912529528141022, 0.17556317150592804, -0.3549193739891052, 0.10563228279352188, 0.15207801759243011, -0.4006497859954834, 0.02221439965069294, -0.25045108795166016, 0.36191704869270325, -0.1647728830575943, 0.12800124287605286, 0.03143196180462837, -0.023397084325551987, 0.1620006263256073, -0.035960227251052856, 0.12049940228462219, 0.4918743968009949, 0.3985981047153473, 0.06575826555490494, 0.04663758724927902, -0.21636366844177246, -0.3171500563621521, 0.45274296402931213, -0.07134702056646347, -0.19478408992290497, -0.08088789135217667, -0.24797722697257996, 0.07650250941514969, 0.22068850696086884, -0.16531668603420258, 0.020083246752619743, -0.07149747759103775, 0.1982908993959427, 0.3590223789215088, 0.12731990218162537, 0.6081846356391907, 0.1068074032664299, 0.06288106739521027, -0.12625765800476074, 0.03578850254416466, 0.2313380092382431, 0.019963549450039864, -0.19147317111492157, 0.025651894509792328, -0.10707360506057739, 0.027177460491657257, -0.015245086513459682, -0.02963547594845295, 0.27339208126068115, -0.22649821639060974], [0.061611108481884, 0.3192201554775238, -0.2586307227611542, 0.17545953392982483, 0.08086813241243362, 0.11754698306322098, 0.16051417589187622, -0.17797450721263885, 0.048601243644952774, -0.4246763288974762, 0.13754428923130035, -0.391825795173645, 0.17201143503189087, 0.06053459644317627, 0.07503821700811386, -0.05986333265900612, 0.13481555879116058, -0.17392855882644653, 0.284778892993927, 0.013959589414298534, 0.024203753098845482, 0.6052565574645996, -0.4076697826385498, 0.16553647816181183, -0.10791470855474472, 0.046332601457834244, -0.13403098285198212, -0.003089581849053502, -0.3951605558395386, -0.07818978279829025, -0.07420029491186142, 0.12391825020313263, 0.11792073398828506, -0.3344120383262634, -0.0010593552142381668, 0.417106956243515, 0.12601414322853088, 0.14625103771686554, 0.00072190206265077, 0.047134868800640106, 0.28971797227859497, -0.15235227346420288, -0.14346028864383698, 0.20767825841903687, -0.3434842526912689, 0.058319076895713806, -0.4425242245197296, -0.0833648145198822, 0.026653548702597618, -0.18795956671237946, 0.05047929659485817, 0.11206251382827759, -0.09404666721820831, 0.052366070449352264, -0.09599597007036209, 0.4975091814994812, -0.3327709436416626, 0.21851497888565063, -0.01373470202088356, -0.1531689316034317, -0.23210199177265167, 0.11428993195295334, -0.2809591293334961, 0.213842511177063], [-0.1943974494934082, 0.04070458188652992, -0.13929130136966705, 0.3765828013420105, 0.405768483877182, -0.018000300973653793, -0.19374851882457733, -0.27460506558418274, 0.1618339717388153, 0.06482061743736267, 0.2634217441082001, -0.1299990713596344, -0.19316831231117249, 0.3109000623226166, -0.21405135095119476, -0.01666627638041973, 0.12512299418449402, -0.1486606001853943, -0.1449233442544937, -0.07621270418167114, 0.3859592378139496, -0.08623629808425903, 0.12961193919181824, 0.05952071025967598, 0.015130768530070782, 0.013392705470323563, -0.10322335362434387, -0.3561561703681946, -0.044640228152275085, -0.37675562500953674, 0.04655821621417999, -0.2833822965621948, -0.006951818708330393, 0.015621068887412548, -0.018063655123114586, 0.360150009393692, -0.25441670417785645, 0.277479350566864, -0.0658559501171112, 0.16764217615127563, 0.13907985389232635, 0.2855908274650574, -0.13469046354293823, 0.43079492449760437, -0.6147221922874451, 0.15017282962799072, -0.04398433119058609, -0.07834134995937347, -0.0622706264257431, -0.0004701373400166631, 0.027350373566150665, -0.09849093854427338, -0.3282300531864166, -0.18959224224090576, -0.1412537395954132, 0.5272358059883118, -0.27419179677963257, 0.1299978494644165, 0.1281050741672516, -0.2500009536743164, -0.08699114620685577, 0.2128155678510666, -0.4681030213832855, 0.042060934007167816], [0.05764478072524071, 0.1319989413022995, 0.2749215066432953, -0.09821967035531998, 0.02126329019665718, -0.3251318335533142, -0.10972408205270767, -0.05698373541235924, 0.10384214669466019, 0.09470325708389282, -0.7105329036712646, -0.11441504955291748, -0.09712644666433334, -0.38387513160705566, 0.16343146562576294, 0.4119558036327362, -0.2249981164932251, 0.42542916536331177, -0.22530126571655273, -0.02839990332722664, 0.07830393314361572, 0.11306633055210114, 0.3903372287750244, -0.025250673294067383, -0.33452078700065613, -0.30858364701271057, 0.30223938822746277, 0.21312683820724487, 0.3684721887111664, -0.09001809358596802, -0.00705733522772789, 0.22374886274337769, -0.14567172527313232, 0.11431644856929779, 0.12621907889842987, -0.3682441711425781, 0.04094139114022255, -0.046397145837545395, -0.2754727900028229, -0.11476036161184311, -0.04940558597445488, -0.3474016785621643, 0.22374503314495087, -0.193630188703537, -0.006679804064333439, 0.20063553750514984, 0.4417930543422699, 0.3347397446632385, -0.08777317404747009, 0.19677354395389557, 0.05246008560061455, -0.06106167659163475, 0.06463541090488434, 0.05202633887529373, 0.0631115734577179, -0.11824620515108109, 0.1289893388748169, 0.009871996939182281, 0.12183709442615509, 0.16088014841079712, 0.10778699815273285, -0.15154790878295898, 0.47107112407684326, 0.004822066985070705], [-0.03143598511815071, -0.1370241791009903, -0.04642678052186966, 0.22468335926532745, 0.1701422780752182, 0.23730047047138214, -0.20015762746334076, -0.01729341596364975, -0.23766310513019562, -0.17020252346992493, 0.21249715983867645, -0.32849863171577454, 0.3079338073730469, 0.18522337079048157, -0.2198655754327774, -0.2943638265132904, -0.039692994207143784, -0.03425285965204239, -0.022854944691061974, 0.1592654138803482, -0.19723080098628998, 0.10147184133529663, -0.3048863112926483, 0.1542525440454483, 0.3804936707019806, -0.36408355832099915, -0.11011528968811035, -0.33576416969299316, 0.02634805254638195, -0.13635271787643433, -0.09333166480064392, -0.24539397656917572, 0.28312793374061584, 0.09638843685388565, 0.16909335553646088, 0.0077307806350290775, -0.04365312680602074, 0.11281189322471619, 0.01853824034333229, 0.3199431896209717, 0.047416795045137405, 0.36060452461242676, -0.2187536656856537, 0.0051064155995845795, -0.17656926810741425, 0.5214051008224487, -0.2877734899520874, -0.025826986879110336, -0.1516420990228653, -0.39380499720573425, 0.19548121094703674, 0.010332789272069931, -0.2314528375864029, -0.22125141322612762, -0.19786100089550018, 0.10023010522127151, -0.09792034327983856, 0.36607110500335693, 0.021790768951177597, -0.08619726449251175, -0.0369359515607357, -0.05803965777158737, -0.2615493834018707, -0.2507017254829407], [-0.12853021919727325, 0.1532926708459854, -0.6157584190368652, 0.21620559692382812, 0.3069692850112915, 0.3118622303009033, -0.44291990995407104, 0.3170754611492157, -0.1025669276714325, -0.31194353103637695, -0.15511760115623474, -0.06293802708387375, 0.14998291432857513, 0.5280506014823914, -0.16022993624210358, -0.154209703207016, -0.08119689673185349, -0.12213177233934402, 0.08473467081785202, 0.12911270558834076, -0.19884006679058075, -0.08445720374584198, -0.29267147183418274, 0.05095737800002098, -0.08814416825771332, -0.3490341901779175, -0.05709078907966614, -0.32858604192733765, -0.3786216676235199, -0.3527718782424927, -0.12128191441297531, -0.08164164423942566, -0.12453978508710861, -0.5053739547729492, 0.005412057973444462, 0.3527408242225647, -0.3641056716442108, 0.13580654561519623, -0.0368262380361557, -0.022614747285842896, 0.578003466129303, 0.3125063180923462, -0.5369745492935181, 0.27639704942703247, 0.22887632250785828, -0.16510501503944397, -0.06685861945152283, 0.018963905051350594, 0.1891385167837143, -0.12472634017467499, 0.12889261543750763, 0.13090647757053375, 0.052734699100255966, -0.1596251130104065, -0.08280900865793228, 0.07407303154468536, 0.030687302350997925, 0.24766753613948822, -0.10510663688182831, 0.010521561838686466, -0.3349446952342987, 0.13792353868484497, -0.2754325866699219, 0.09039910137653351], [-0.06203325465321541, 0.171588733792305, -0.1750020533800125, 0.32627952098846436, 0.32014143466949463, 0.38651376962661743, -0.4758138954639435, 0.18385259807109833, 0.1250097006559372, -0.16705098748207092, 0.02769825980067253, -0.39624616503715515, -0.2606832981109619, -0.15385299921035767, -0.1118181049823761, -0.3884190022945404, 0.15737098455429077, -0.25260767340660095, -0.017772072926163673, 0.14785054326057434, -0.012898621149361134, 0.17265261709690094, -0.3597732186317444, 0.39657455682754517, -0.04961870610713959, 0.07301316410303116, -0.10201878100633621, -0.18350297212600708, -0.1903226673603058, -0.11785641312599182, 0.066726915538311, -0.4573126435279846, -0.12355421483516693, -0.2755785584449768, 0.015280515886843204, 0.4678049385547638, 0.09245697408914566, 0.17320667207241058, 0.01660415157675743, 0.1189221665263176, -0.24516786634922028, 0.37478500604629517, -0.012329990044236183, 0.365383118391037, -0.019357137382030487, 0.20244100689888, -0.5043781995773315, 0.33191388845443726, -0.13797418773174286, -0.1933872550725937, 0.14114680886268616, 0.0886525958776474, 0.07131031900644302, -0.0698455274105072, 0.2298070639371872, 0.2481434941291809, -0.03097859025001526, -0.058537449687719345, -0.07987267524003983, 0.009708263911306858, -0.2132102996110916, 0.5052894353866577, -0.20612414181232452, -0.08410796523094177], [0.3502825200557709, 0.10513385385274887, 0.025694048032164574, -0.4707135260105133, -0.06554584950208664, -0.5048831105232239, 0.22652567923069, 0.02590327151119709, 0.06510977447032928, 0.37192395329475403, -0.24372689425945282, 0.10949845612049103, -0.22538858652114868, -0.164968341588974, 0.0721692442893982, 0.12429537624120712, -0.561953067779541, -0.027155375108122826, -0.11199114471673965, 0.13382606208324432, 0.11526010930538177, -0.00307865091599524, 0.35817766189575195, 0.025175463408231735, -0.0452931746840477, -0.0818694606423378, -0.10453759133815765, 0.11209577322006226, 0.05042150616645813, -0.0026739491149783134, 0.11734017729759216, 0.19945697486400604, -0.22349625825881958, 0.2504607141017914, -0.07783138751983643, 0.010544740594923496, -0.0005321933422237635, -0.1474679559469223, -0.11772741377353668, -0.048116568475961685, -0.5008825063705444, -0.28926149010658264, 0.1933375597000122, -0.6628825068473816, -0.0045369453728199005, -0.29097452759742737, 0.22466793656349182, -0.14918440580368042, -0.04038519784808159, -0.0008203798206523061, 0.0280410535633564, -0.09415844082832336, -0.3965681791305542, 0.22509439289569855, -0.14349524676799774, -0.4802199602127075, -0.003570934757590294, -0.4543530344963074, -0.401111364364624, 0.2774510979652405, 0.4235542118549347, -0.11212308704853058, 0.1291196048259735, -0.14030535519123077], [0.119305819272995, -0.25543689727783203, 0.06651867181062698, -0.08188245445489883, -0.16114574670791626, -0.4183083474636078, 0.09672438353300095, 0.07383469492197037, 0.1328430473804474, -0.12747804820537567, -0.18341077864170074, 0.07062393426895142, -0.20945625007152557, -0.0879502147436142, 0.5955715775489807, 0.4838668406009674, -0.20895670354366302, -0.22054779529571533, -0.054089102894067764, -0.06159095838665962, 0.13399499654769897, -0.14621253311634064, -0.21770153939723969, 0.04080267995595932, -0.043892648071050644, -0.24076080322265625, 0.19409498572349548, 0.13998529314994812, 0.39864349365234375, 0.04212869703769684, 0.0016012326814234257, 0.37248578667640686, -0.05443829298019409, 0.06256546080112457, 0.0632859319448471, -0.25238972902297974, 0.2014453411102295, -0.3570704758167267, -0.09916295111179352, 0.000936625583563, -0.19328458607196808, -0.23196473717689514, 0.05208178609609604, -0.0675395205616951, 0.3065860867500305, 0.18162812292575836, 0.2575541138648987, -0.17241591215133667, 0.2446451038122177, 0.18036134541034698, -0.24138271808624268, -0.1057787612080574, -0.22408773005008698, -0.3000950813293457, 0.4138142168521881, -0.4500523805618286, -0.167161226272583, -0.2878170609474182, -0.036088500171899796, -0.02803707867860794, 0.10096842795610428, -0.3845088481903076, 0.08007670193910599, -0.08790567517280579], [0.1904320865869522, -0.19421632587909698, 0.43186110258102417, 0.047903694212436676, -0.18972420692443848, -0.006996496580541134, 0.15732677280902863, -0.06421498954296112, -0.3607175946235657, 0.35032621026039124, -0.18622788786888123, 0.16261309385299683, 0.09695596992969513, -0.3262416422367096, 0.44794121384620667, 0.29849475622177124, -0.25343817472457886, -0.026835719123482704, -0.12390631437301636, -0.32912933826446533, 0.1970047503709793, -0.48670539259910583, 0.3145517110824585, 0.020406445488333702, -0.06935278326272964, 0.016923675313591957, -0.1011265367269516, 0.25081706047058105, -0.03609146922826767, 0.060258928686380386, -0.11709170788526535, 0.6061351299285889, -0.21159663796424866, 0.436257928609848, -0.3303195536136627, 0.1007392629981041, -0.1063511073589325, -0.12590506672859192, -0.4401668310165405, -0.17362657189369202, -0.4079922139644623, -0.6112040281295776, 0.2680332660675049, -0.5420742034912109, 0.2045745551586151, 0.046611275523900986, -0.06994276493787766, -0.20618708431720734, -0.1700841784477234, 0.13796274363994598, 0.16070137917995453, -0.059526849538087845, -0.17502382397651672, -0.09443125873804092, 0.09224800020456314, -0.11519944667816162, 0.2842371463775635, 0.1345258504152298, 0.21351686120033264, 0.3474951386451721, 0.41675683856010437, -0.038787007331848145, 0.23134662210941315, -0.1013573408126831], [0.12769147753715515, 0.27032265067100525, -0.2884777784347534, 0.40933212637901306, 0.437065064907074, 0.23614247143268585, -0.04380352795124054, -0.09613606333732605, 0.2776317298412323, -0.22760358452796936, 0.1792016476392746, -0.25471678376197815, 0.02598198503255844, -0.096457839012146, -0.3786569833755493, -0.5253182649612427, 0.07566998153924942, -0.4143003225326538, 0.30122366547584534, 0.14212381839752197, -0.3709595203399658, -0.2151220142841339, -0.3618340790271759, -0.11659032106399536, -0.129424586892128, -0.001346271368674934, -0.3139404058456421, -0.06583930552005768, 0.22159361839294434, 0.02053273841738701, -0.19211973249912262, 0.10392893105745316, 0.052616704255342484, -0.2325441837310791, 0.2823951244354248, 0.29120248556137085, -0.22774279117584229, 0.4148210883140564, 0.2532713711261749, -0.01436568796634674, 0.2788509726524353, 0.5535816550254822, -0.5254321098327637, 0.2003406584262848, -0.33814138174057007, -0.07728484272956848, -0.179030179977417, 0.09337324649095535, 0.0016744694439694285, -0.22175078094005585, 0.20130625367164612, -0.14844653010368347, 0.37634575366973877, -0.32640713453292847, 0.13573220372200012, 0.2967076003551483, -0.26137053966522217, 0.17087042331695557, 0.07493177056312561, -0.06638002395629883, -0.23023299872875214, -0.07140745222568512, -0.11603028327226639, 0.01949772611260414], [-0.010299974121153355, -0.009696564637124538, -0.16822196543216705, 0.2675628066062927, 0.5075998902320862, 0.04409831389784813, -0.10032396018505096, -0.01718951389193535, 0.16836614906787872, 0.211442232131958, -0.02599560096859932, -0.32571473717689514, 0.07341429591178894, 0.32545754313468933, 0.24477793276309967, -0.3643375039100647, 0.1818944215774536, -0.021748678758740425, -0.09661161154508591, 0.20014190673828125, -0.09560782462358475, 0.2899796962738037, -0.2569131553173065, 0.20318549871444702, 0.22011147439479828, 0.35156089067459106, -0.4282466769218445, -0.44062232971191406, 0.06825239956378937, -0.13319642841815948, -0.03324232995510101, -0.005074460059404373, 0.167894184589386, -0.10461552441120148, 0.10745184868574142, 0.12964989244937897, -0.5034358501434326, 0.05343078449368477, 0.20978371798992157, -0.09427136182785034, 0.2912633717060089, 0.20702196657657623, 0.042439963668584824, 0.5083070993423462, 0.004793036729097366, -0.06192005053162575, -0.4363650977611542, 0.009476435370743275, -0.1518845111131668, 0.12712500989437103, 0.051250118762254715, 0.3336455821990967, 0.24393734335899353, 0.03494453802704811, -0.16052253544330597, 0.10523595660924911, -0.39057615399360657, 0.31606513261795044, -0.11214825510978699, -0.028992149978876114, -0.13131822645664215, -0.05097567290067673, -0.22319619357585907, 0.07450184971094131], [-0.3498231768608093, 0.00040846786578185856, 0.07726582884788513, 0.27833014726638794, 0.07559710741043091, 0.033880531787872314, -0.03342735394835472, 0.1606810986995697, 0.11001481115818024, 0.064409039914608, 0.1117333322763443, 0.24567262828350067, -0.058162663131952286, -0.030592093244194984, -0.10385652631521225, -0.24538850784301758, 0.3079656958580017, -0.3725484609603882, -0.33259570598602295, 0.2976095676422119, 0.00041658824193291366, 0.06665889918804169, -0.09268807619810104, 0.3662917912006378, 0.05176892504096031, -0.008903790265321732, -0.4997919797897339, -0.2045651525259018, -0.21661891043186188, -0.1831309050321579, -0.16401910781860352, -0.1555541753768921, -0.08284199982881546, -0.38066017627716064, 0.2250176966190338, 0.11877609044313431, 0.10520727932453156, 0.09190456569194794, 0.0027033942751586437, 0.1694972813129425, 0.5457154512405396, 0.024397913366556168, -0.2989434003829956, -0.10885603725910187, -0.1939295381307602, 0.030715717002749443, -0.1375110000371933, -0.1168026253581047, -0.3220086395740509, -0.11469361186027527, 0.16333357989788055, 0.03246648982167244, 0.17995604872703552, 0.10779892653226852, -0.15519827604293823, 0.38262876868247986, -0.17013713717460632, -0.06916902959346771, 0.2749108374118805, -0.1385999619960785, -0.4518645107746124, 0.07325100153684616, -0.2795651853084564, -0.21225324273109436], [-0.22017383575439453, 0.24221019446849823, -0.05574061721563339, 0.5521268248558044, 0.30234766006469727, 0.30905354022979736, -0.029229944571852684, 0.04409995302557945, 0.12848533689975739, -0.18405848741531372, 0.07722499221563339, -0.16736173629760742, 0.15336084365844727, 0.27237969636917114, -0.43043065071105957, 0.011824212968349457, 0.03463509678840637, -0.22408007085323334, -0.11836718022823334, 0.021551692858338356, -0.12493768334388733, 0.2359364777803421, -0.24726806581020355, -0.15139509737491608, 0.10837005078792572, -0.04492523893713951, -0.46766147017478943, -0.3095787465572357, 0.11191270500421524, 0.05702901631593704, -0.12494169175624847, -0.1750432699918747, -0.3263358175754547, 0.03818393871188164, 0.043841082602739334, -0.032331619411706924, 0.26123619079589844, 0.05422501266002655, 0.08901605755090714, 0.2690812051296234, 0.30692893266677856, 0.33465713262557983, -0.3050347566604614, 0.38910338282585144, 0.013243117369711399, -0.20606832206249237, -0.5589234232902527, -0.3843841552734375, -0.11344180256128311, -0.023060033097863197, 0.21913938224315643, -0.15967346727848053, -0.06221669539809227, 0.1375219076871872, 0.13491031527519226, 0.2950659692287445, 0.15056854486465454, 0.16062436997890472, -0.33866894245147705, -0.0027969665825366974, -0.28197646141052246, 0.08975695073604584, -0.34440720081329346, 0.1877753734588623], [-0.0982140600681305, -0.04068255424499512, -0.17453633248806, 0.1522207260131836, 0.2701595723628998, 0.2617282271385193, -0.4812943935394287, -0.20882359147071838, 0.051331207156181335, -0.1025540679693222, 0.20190425217151642, -0.13182659447193146, 0.21977370977401733, -0.04646044969558716, -0.27632319927215576, -0.24779143929481506, 0.19014248251914978, -0.4286392033100128, 0.02955135889351368, -0.16563139855861664, 0.15373903512954712, 0.3751768469810486, -0.11530845612287521, -0.228066086769104, 0.41581204533576965, 0.019587751477956772, -0.13591855764389038, -0.3783627450466156, 0.011216138489544392, 0.036911409348249435, 0.005779515020549297, -0.09730775654315948, -0.2117018699645996, -0.4938417375087738, 0.1560991108417511, 0.29358142614364624, -0.0015351775800809264, 0.6075297594070435, -0.05785277485847473, 0.3386386036872864, 0.46681657433509827, 0.02423175796866417, 0.12078043073415756, 0.01863730140030384, -0.11039653420448303, -0.2280067801475525, -0.15827810764312744, 0.15508098900318146, 0.05157171189785004, -0.2093806266784668, -0.08630213886499405, 0.04785088077187538, 0.10027432441711426, -0.3935902416706085, -0.019180532544851303, -0.0750102698802948, -0.008957541547715664, 0.09644240140914917, -0.08150044828653336, -0.16606773436069489, -0.15741626918315887, -0.1011401042342186, -0.20225663483142853, 0.05217709392309189], [0.032048869878053665, -0.017673825845122337, -0.06619736552238464, -0.04198484495282173, -0.7032058238983154, 0.035281699150800705, 0.033601582050323486, 0.12108161300420761, 0.07062598317861557, 0.12624801695346832, 0.10098403692245483, 0.18641622364521027, -0.4195832908153534, -0.34324511885643005, 0.09571043401956558, 0.505970299243927, -0.3033329248428345, -0.05757688358426094, 0.06515313684940338, -0.22433854639530182, -0.11107891798019409, 0.027674172073602676, 0.3546665608882904, 0.1656026989221573, -0.09472749382257462, 0.1375819891691208, 0.4238467216491699, 0.12199041247367859, 0.16855745017528534, -0.18350733816623688, 0.14916901290416718, 0.13661232590675354, -0.1380477100610733, 0.25068798661231995, -0.05892716720700264, -0.15792030096054077, -0.0279743280261755, -0.35285380482673645, -0.02679719217121601, -0.08619529008865356, -0.25463196635246277, -0.14244216680526733, 0.037183187901973724, -0.4118538200855255, 0.30992597341537476, -0.10109563171863556, 0.05420126020908356, 0.11059661209583282, -0.20961841940879822, 0.5161942839622498, -0.28177011013031006, -0.31032705307006836, 0.03367668390274048, -0.006830214057117701, -0.17931069433689117, -0.45113691687583923, -0.1519225537776947, 0.1361246556043625, 0.12729494273662567, 0.029922939836978912, 0.3157389760017395, -0.3048575520515442, 0.2436489313840866, 0.07085442543029785], [0.3533481955528259, 0.27170616388320923, 0.14300361275672913, -0.015575490891933441, 0.24736455082893372, 0.36396631598472595, -0.029203638434410095, 0.1593829095363617, 0.29892486333847046, -0.32239314913749695, 0.1336408257484436, -0.41936856508255005, 0.013938716612756252, 0.42377662658691406, -0.24839144945144653, -0.6170493960380554, 0.2226359248161316, -0.3005312383174896, 0.031531352549791336, -0.11360355466604233, -0.21187804639339447, 0.16767576336860657, -0.12339209765195847, 0.04437165707349777, 0.05866328626871109, 0.0051345182582736015, -0.31076598167419434, -0.08412627875804901, 0.06688721477985382, -0.43409135937690735, -0.29060083627700806, -0.4123431444168091, -0.23140166699886322, -0.5043064951896667, -0.2603907585144043, 0.020110266283154488, -0.009761377237737179, 0.009623151272535324, 0.10663803666830063, 0.00743299862369895, 0.4200165867805481, 0.2877219319343567, -0.22266404330730438, 0.32154932618141174, -0.30307504534721375, 0.1001385897397995, -0.17185425758361816, -0.24037347733974457, 0.2166312336921692, 0.19333818554878235, 0.021002147346735, 0.0018406892195343971, 0.14292560517787933, -0.3484993577003479, -0.10014095157384872, 0.02260468527674675, 0.14458279311656952, 0.24205762147903442, 0.050738029181957245, -0.356113463640213, -0.2210337370634079, 0.2634684145450592, -0.13873788714408875, -0.014580569230020046], [-0.2997502088546753, -0.16450132429599762, 0.0791793167591095, -0.007294665090739727, 0.3486497104167938, 0.4110024869441986, 0.0977918729186058, 0.051831893622875214, 0.15484732389450073, 0.38609135150909424, 0.15938787162303925, -0.3186797797679901, 0.11513651907444, -0.051052846014499664, -0.1821504831314087, -0.41422101855278015, -0.2518656551837921, -0.27452054619789124, 0.1003614142537117, -0.36049705743789673, 0.010115042328834534, 0.18739672005176544, -0.24298986792564392, -0.016195574775338173, -0.02737952023744583, -0.5091193318367004, 0.04461575299501419, -0.1402803361415863, -0.1309279352426529, -0.16014502942562103, 0.013496370986104012, -0.14948758482933044, 0.19276341795921326, -0.22695043683052063, 0.01158427819609642, 0.2250829041004181, 0.10807842761278152, 0.23514655232429504, 0.3437429964542389, 0.1123499870300293, 0.2117198258638382, 0.11959383636713028, -0.3966290354728699, 0.41493484377861023, 0.11769522726535797, -0.06943930685520172, -0.1852191984653473, -0.22206051647663116, -0.1392281949520111, 0.013219626620411873, 0.09329574555158615, 0.3526599109172821, 0.11910014599561691, -0.13474497199058533, -0.24687421321868896, 0.20334111154079437, -0.12758421897888184, -0.06382101029157639, 0.09443916380405426, 0.024800656363368034, -0.15485896170139313, 0.00846527423709631, -0.19561268389225006, 0.2245694398880005], [0.0936279222369194, 0.13513047993183136, 0.2653599977493286, 0.07195055484771729, 0.032633647322654724, -0.24142536520957947, 0.1904299557209015, -0.0509098619222641, -0.28916576504707336, 0.1443100869655609, 0.17080949246883392, -0.22460715472698212, -0.17751164734363556, -0.19672955572605133, 0.1485150158405304, 0.3416866362094879, -0.08334577828645706, -0.11207915842533112, 0.2424638271331787, 0.1447765976190567, 0.1267930120229721, -0.34490296244621277, 0.5682663917541504, -0.08561829477548599, 0.043088991194963455, -0.3199195861816406, 0.16059856116771698, 0.15496890246868134, -0.047216761857271194, -0.0056934962049126625, 0.11939813941717148, 0.41012704372406006, -0.04484377056360245, 0.26857057213783264, -0.15421931445598602, -0.43225622177124023, 0.10748038440942764, -0.43906888365745544, 0.06711393594741821, -0.22108900547027588, 0.009155193343758583, -0.28619831800460815, 0.37907904386520386, -0.558318555355072, 0.3668011724948883, 0.28804293274879456, 0.1499338001012802, 0.3067770302295685, 0.2594740390777588, 0.1039745882153511, -0.35864511132240295, -0.10533425956964493, 0.14446723461151123, 0.32489094138145447, -0.08765490353107452, -0.2661151587963104, 0.0237098541110754, -0.32474517822265625, -0.1463603377342224, 0.11190447211265564, 0.1983964592218399, -0.06289678066968918, -0.00393766351044178, 0.2445739209651947], [0.13787046074867249, 0.23217040300369263, -0.09279820322990417, 0.024948036298155785, -0.04495907202363014, -0.09680885821580887, 0.188035249710083, -0.04168812930583954, -0.17091979086399078, 0.2836242616176605, -0.07279197126626968, 0.22855423390865326, -0.09914900362491608, -0.20441873371601105, 0.40369725227355957, 0.17952294647693634, -0.1719171553850174, 0.16794754564762115, -0.36246058344841003, 0.02647971548140049, 0.0901716947555542, -0.20296970009803772, 0.47160232067108154, -0.5421431660652161, -0.028322458267211914, -0.09320705384016037, 0.3730159103870392, 0.29795822501182556, 0.18712250888347626, -0.05078241229057312, 0.05759180709719658, 0.11876169592142105, 0.02308555133640766, 0.33596476912498474, 0.10337338596582413, 0.20844803750514984, 0.34470731019973755, -0.5244832634925842, -0.2308792620897293, 0.02714417316019535, -0.38269367814064026, -0.48358649015426636, 0.11115563660860062, -0.17097744345664978, 0.3034413456916809, -0.2492738664150238, 0.1741812825202942, -0.06332886219024658, 0.09005319327116013, 0.033181287348270416, -0.20978179574012756, 0.03366665914654732, 0.26357847452163696, -0.0030570486560463905, 0.054178301244974136, -0.11195100098848343, 0.17878101766109467, 0.03330959379673004, -0.20018409192562103, -0.26242363452911377, 0.34826022386550903, -0.07723488658666611, 0.18187445402145386, -0.29146140813827515]], "mlp_extractor.policy_net.2.bias": 